{"learner":{"attributes":{"scikit_learn":"{\"_estimator_type\": \"classifier\"}"},"feature_names":[],"feature_types":[],"gradient_booster":{"model":{"cats":{"enc":[],"feature_segments":[],"sorted_idx":[]},"gbtree_model_param":{"num_parallel_tree":"1","num_trees":"1050"},"iteration_indptr":[0,7,14,21,28,35,42,49,56,63,70,77,84,91,98,105,112,119,126,133,140,147,154,161,168,175,182,189,196,203,210,217,224,231,238,245,252,259,266,273,280,287,294,301,308,315,322,329,336,343,350,357,364,371,378,385,392,399,406,413,420,427,434,441,448,455,462,469,476,483,490,497,504,511,518,525,532,539,546,553,560,567,574,581,588,595,602,609,616,623,630,637,644,651,658,665,672,679,686,693,700,707,714,721,728,735,742,749,756,763,770,777,784,791,798,805,812,819,826,833,840,847,854,861,868,875,882,889,896,903,910,917,924,931,938,945,952,959,966,973,980,987,994,1001,1008,1015,1022,1029,1036,1043,1050],"tree_info":[0,1,2,3,4,5,6,0,1,2,3,4,5,6,0,1,2,3,4,5,6,0,1,2,3,4,5,6,0,1,2,3,4,5,6,0,1,2,3,4,5,6,0,1,2,3,4,5,6,0,1,2,3,4,5,6,0,1,2,3,4,5,6,0,1,2,3,4,5,6,0,1,2,3,4,5,6,0,1,2,3,4,5,6,0,1,2,3,4,5,6,0,1,2,3,4,5,6,0,1,2,3,4,5,6,0,1,2,3,4,5,6,0,1,2,3,4,5,6,0,1,2,3,4,5,6,0,1,2,3,4,5,6,0,1,2,3,4,5,6,0,1,2,3,4,5,6,0,1,2,3,4,5,6,0,1,2,3,4,5,6,0,1,2,3,4,5,6,0,1,2,3,4,5,6,0,1,2,3,4,5,6,0,1,2,3,4,5,6,0,1,2,3,4,5,6,0,1,2,3,4,5,6,0,1,2,3,4,5,6,0,1,2,3,4,5,6,0,1,2,3,4,5,6,0,1,2,3,4,5,6,0,1,2,3,4,5,6,0,1,2,3,4,5,6,0,1,2,3,4,5,6,0,1,2,3,4,5,6,0,1,2,3,4,5,6,0,1,2,3,4,5,6,0,1,2,3,4,5,6,0,1,2,3,4,5,6,0,1,2,3,4,5,6,0,1,2,3,4,5,6,0,1,2,3,4,5,6,0,1,2,3,4,5,6,0,1,2,3,4,5,6,0,1,2,3,4,5,6,0,1,2,3,4,5,6,0,1,2,3,4,5,6,0,1,2,3,4,5,6,0,1,2,3,4,5,6,0,1,2,3,4,5,6,0,1,2,3,4,5,6,0,1,2,3,4,5,6,0,1,2,3,4,5,6,0,1,2,3,4,5,6,0,1,2,3,4,5,6,0,1,2,3,4,5,6,0,1,2,3,4,5,6,0,1,2,3,4,5,6,0,1,2,3,4,5,6,0,1,2,3,4,5,6,0,1,2,3,4,5,6,0,1,2,3,4,5,6,0,1,2,3,4,5,6,0,1,2,3,4,5,6,0,1,2,3,4,5,6,0,1,2,3,4,5,6,0,1,2,3,4,5,6,0,1,2,3,4,5,6,0,1,2,3,4,5,6,0,1,2,3,4,5,6,0,1,2,3,4,5,6,0,1,2,3,4,5,6,0,1,2,3,4,5,6,0,1,2,3,4,5,6,0,1,2,3,4,5,6,0,1,2,3,4,5,6,0,1,2,3,4,5,6,0,1,2,3,4,5,6,0,1,2,3,4,5,6,0,1,2,3,4,5,6,0,1,2,3,4,5,6,0,1,2,3,4,5,6,0,1,2,3,4,5,6,0,1,2,3,4,5,6,0,1,2,3,4,5,6,0,1,2,3,4,5,6,0,1,2,3,4,5,6,0,1,2,3,4,5,6,0,1,2,3,4,5,6,0,1,2,3,4,5,6,0,1,2,3,4,5,6,0,1,2,3,4,5,6,0,1,2,3,4,5,6,0,1,2,3,4,5,6,0,1,2,3,4,5,6,0,1,2,3,4,5,6,0,1,2,3,4,5,6,0,1,2,3,4,5,6,0,1,2,3,4,5,6,0,1,2,3,4,5,6,0,1,2,3,4,5,6,0,1,2,3,4,5,6,0,1,2,3,4,5,6,0,1,2,3,4,5,6,0,1,2,3,4,5,6,0,1,2,3,4,5,6,0,1,2,3,4,5,6,0,1,2,3,4,5,6,0,1,2,3,4,5,6,0,1,2,3,4,5,6,0,1,2,3,4,5,6,0,1,2,3,4,5,6,0,1,2,3,4,5,6,0,1,2,3,4,5,6,0,1,2,3,4,5,6,0,1,2,3,4,5,6,0,1,2,3,4,5,6,0,1,2,3,4,5,6,0,1,2,3,4,5,6,0,1,2,3,4,5,6,0,1,2,3,4,5,6,0,1,2,3,4,5,6,0,1,2,3,4,5,6,0,1,2,3,4,5,6,0,1,2,3,4,5,6,0,1,2,3,4,5,6,0,1,2,3,4,5,6,0,1,2,3,4,5,6,0,1,2,3,4,5,6,0,1,2,3,4,5,6,0,1,2,3,4,5,6,0,1,2,3,4,5,6,0,1,2,3,4,5,6,0,1,2,3,4,5,6,0,1,2,3,4,5,6,0,1,2,3,4,5,6,0,1,2,3,4,5,6,0,1,2,3,4,5,6,0,1,2,3,4,5,6,0,1,2,3,4,5,6,0,1,2,3,4,5,6,0,1,2,3,4,5,6,0,1,2,3,4,5,6,0,1,2,3,4,5,6,0,1,2,3,4,5,6,0,1,2,3,4,5,6,0,1,2,3,4,5,6,0,1,2,3,4,5,6],"trees":[{"base_weights":[-3.1267347E-5,-2.8051096E-1,6.305061E0,5.353636E0,-4.7419748E-1,-5.0249934E-2,3.057295E1,-4.989313E-2,1.4177337E1,-4.8399332E-1,3.8004994E0,3.2601278E0,-3.233872E-2,2.8256725E1,2.2178638E0,-5.0683435E-2,-2.4909034E-1,-4.1695535E-2,1.3687667E0,-2.864488E-2,3.0508955E0,5.556729E-1,4.3595104E0,7.658547E0,-4.7707415E-1,-4.4306472E-2,1.638179E0,5.73279E0,-3.438894E-2,-3.913158E-2,1.4912317E1,-4.9724135E-1,2.2349654E-1,2.3628503E-1,3.2712953E0,2.2677523E-3,7.605595E0,-2.6846275E-2,2.1398656E0,-5.0534286E-2,3.9256945E-2,-3.271539E-2,7.014992E-2,5.2226263E-1,-2.5832517E-2,1.2844887E0,3.2448855E-1],"categories":[],"categories_nodes":[],"categories_segments":[],"categories_sizes":[],"default_left":[0,0,0,0,0,0,0,0,0,0,0,0,0,0,0,0,0,0,0,0,0,0,0,0,0,0,0,0,0,0,0,0,0,0,0,0,0,0,0,0,0,0,0,0,0,0,0],"id":0,"left_children":[1,3,5,7,9,-1,11,-1,13,15,17,-1,-1,19,21,-1,23,-1,-1,-1,-1,25,27,29,31,-1,33,35,-1,-1,37,39,-1,41,43,-1,45,-1,-1,-1,-1,-1,-1,-1,-1,-1,-1],"loss_changes":[5.4338145E3,3.2127778E3,2.1634748E4,5.060205E3,1.20968445E2,0E0,1.8081035E3,0E0,6.5134263E3,1.5107788E1,2.81646E2,0E0,0E0,1.1563926E3,7.661375E1,0E0,4.6081744E2,0E0,0E0,0E0,0E0,1.5479547E1,6.369319E1,4.2420084E2,1.4643692E1,0E0,1.4707167E1,7.9527954E1,0E0,0E0,3.7936273E2,1.9747086E0,0E0,1.4656965E0,2.2323696E1,0E0,8.647308E1,0E0,0E0,0E0,0E0,0E0,0E0,0E0,0E0,0E0,0E0],"parents":[2147483647,0,0,1,1,2,2,3,3,4,4,6,6,8,8,9,9,10,10,13,13,14,14,16,16,21,21,22,22,23,23,24,24,26,26,27,27,30,30,31,31,33,33,34,34,36,36],"right_children":[2,4,6,8,10,-1,12,-1,14,16,18,-1,-1,20,22,-1,24,-1,-1,-1,-1,26,28,30,32,-1,34,36,-1,-1,38,40,-1,42,44,-1,46,-1,-1,-1,-1,-1,-1,-1,-1,-1,-1],"split_conditions":[-8.383993E-2,2.6699454E-3,2.8625762E-1,-6.6546416E-1,1.1549477E1,-5.0249934E-2,2.877562E-1,-4.989313E-2,-6.6440284E-1,-1.5761244E-1,-2.2283341E-1,3.2601278E0,-3.233872E-2,-1.5435538E-1,-1.4630838E-2,-5.0683435E-2,-1.565839E-1,-4.1695535E-2,1.3687667E0,-2.864488E-2,3.0508955E0,-2.8011413E-2,3.9705503E0,-2.5668417E-3,5.459199E-1,-4.4306472E-2,-6.0580105E-1,-1.308991E-1,-3.438894E-2,-3.913158E-2,-3.1183264E-1,-8.385758E-2,2.2349654E-1,-5.4005764E-2,5.429984E0,2.2677523E-3,2.877562E-1,-2.6846275E-2,2.1398656E0,-5.0534286E-2,3.9256945E-2,-3.271539E-2,7.014992E-2,5.2226263E-1,-2.5832517E-2,1.2844887E0,3.2448855E-1],"split_indices":[27,28,0,42,7,0,0,0,42,43,31,0,0,43,12,0,43,0,0,0,0,12,0,44,35,0,42,0,0,0,0,27,0,17,43,0,0,0,0,0,0,0,0,0,0,0,0],"split_type":[0,0,0,0,0,0,0,0,0,0,0,0,0,0,0,0,0,0,0,0,0,0,0,0,0,0,0,0,0,0,0,0,0,0,0,0,0,0,0,0,0,0,0,0,0,0,0],"sum_hessian":[3.0706416E3,2.9407776E3,1.2986389E2,9.685058E1,2.843927E3,1.02179955E2,2.7683939E1,5.8795963E1,3.8054615E1,2.8383096E3,5.617449E0,2.5926687E1,1.7572532E0,1.6852346E1,2.1202269E1,2.585726E3,2.5258354E2,4.6091886E0,1.00826E0,1.2963344E0,1.5556012E1,1.26464615E1,8.555806E0,6.16479E0,2.4641875E2,6.884976E0,5.761486E0,6.452864E0,2.1029425E0,3.3704693E0,2.7943206E0,2.4541049E2,1.00826E0,3.7161584E0,2.0453274E0,1.8436755E0,4.6091886E0,1.1234897E0,1.670831E0,2.4362444E2,1.7860607E0,1.8148681E0,1.9012903E0,1.00826E0,1.0370674E0,1.2099121E0,3.3992767E0],"tree_param":{"num_deleted":"0","num_feature":"52","num_nodes":"47","size_leaf_vector":"1"}},{"base_weights":[-4.1091407E-6,6.682809E0,-5.3674694E-2,7.048395E0,-5.2610196E-2,7.1368937E0,-4.9260404E-2,7.197049E0,-4.7310054E-2,-7.368521E-2,7.231685E0,7.169458E-2,-4.1632447E-2,7.247537E0,-3.2421786E-2,7.256022E-1,-2.7152827E-2,2.2270877E-2,-2.7152827E-2],"categories":[],"categories_nodes":[],"categories_segments":[],"categories_sizes":[],"default_left":[0,0,0,0,0,0,0,0,0,0,0,0,0,0,0,0,0,0,0],"id":1,"left_children":[1,3,-1,5,-1,7,-1,9,-1,11,13,-1,-1,15,17,-1,-1,-1,-1],"loss_changes":[4.891427E4,2.6756445E3,0E0,6.475E2,0E0,4.4005078E2,0E0,2.38875E2,0E0,1.7822155E0,1.0869922E2,0E0,0E0,6.1929688E1,2.463271E-1,0E0,0E0,0E0,0E0],"parents":[2147483647,0,0,1,1,3,3,5,5,7,7,9,9,10,10,13,13,14,14],"right_children":[2,4,-1,6,-1,8,-1,10,-1,12,14,-1,-1,16,18,-1,-1,-1,-1],"split_conditions":[-3.4906048E-1,-2.5661194E-1,-5.3674694E-2,2.8462637E-2,-5.2610196E-2,-1.4646983E-1,-4.9260404E-2,3.0684203E-3,-4.7310054E-2,-6.071137E-1,-8.369546E-2,7.169458E-2,-4.1632447E-2,1.8066524E0,-6.9136876E-1,7.256022E-1,-2.7152827E-2,2.2270877E-2,-2.7152827E-2],"split_indices":[0,9,0,2,0,43,0,45,0,1,27,0,0,42,8,0,0,0,0],"split_type":[0,0,0,0,0,0,0,0,0,0,0,0,0,0,0,0,0,0,0],"sum_hessian":[1.3634723E4,1.01283154E3,1.2621892E4,9.6396796E2,4.8863556E1,9.5283936E2,1.1128611E1,9.454203E2,7.419074E0,4.4770274E0,9.4094324E2,1.0233206E0,3.453707E0,9.388966E2,2.046641E0,9.378733E2,1.0233206E0,1.0233206E0,1.0233206E0],"tree_param":{"num_deleted":"0","num_feature":"52","num_nodes":"19","size_leaf_vector":"1"}},{"base_weights":[1.6516251E-6,-3.4277144E-1,1.6106687E0,1.1793044E0,-6.2321824E-1,2.2200456E0,-6.448275E-2,-6.298081E-1,2.1989746E0,-6.369726E-1,-1.2611218E-1,6.4713195E-2,2.2202401E-1,-6.3691235E-1,-4.9929768E-1,2.2179608E0,-6.149075E-2,-6.391675E-1,-1.4710134E-1,2.1723397E0,-6.4416155E-2,-6.386551E-2,-5.019154E-1,9.542023E-1,-6.1495054E-1,-4.1017987E-2,2.2196095E0,-6.395235E-1,1.0453409E-1,1.7826006E0,-6.382298E-2,-3.7593674E-2,2.2032292E-1,-6.1804153E-2,6.828702E-2,1.5997687E-1,-4.366984E-2,-6.37614E-2,-6.379557E-3,6.4713195E-2,2.2199392E-1,-6.437303E-1,-6.0703987E-1,-4.8193883E-2,1.6349564E-1,-4.7509234E-2,2.112556E-1,6.4713195E-2,-4.366984E-2,-6.4395213E-1,-5.494811E-1,2.1642835E-1,-6.45066E-2,-6.441303E-2,-5.5339165E-2,1.4115703E-1,-6.340061E-2],"categories":[],"categories_nodes":[],"categories_segments":[],"categories_sizes":[],"default_left":[0,0,0,0,0,0,0,0,0,0,0,0,0,0,0,0,0,0,0,0,0,0,0,0,0,0,0,0,0,0,0,0,0,0,0,0,0,0,0,0,0,0,0,0,0,0,0,0,0,0,0,0,0,0,0,0,0],"id":2,"left_children":[1,3,5,7,9,11,-1,13,15,17,19,-1,-1,21,23,25,-1,27,29,31,-1,-1,33,35,37,-1,39,41,43,45,-1,-1,-1,-1,-1,-1,-1,-1,47,-1,-1,49,51,-1,-1,-1,-1,-1,-1,53,55,-1,-1,-1,-1,-1,-1],"loss_changes":[2.0534762E4,1.3091636E4,8.971832E3,8.803955E3,1.769873E2,1.3476562E-1,0E0,1.2774048E0,1.6441309E2,2.7000977E1,8.331071E2,0E0,0E0,6.262207E-2,1.6298304E1,1.4045898E1,0E0,6.7089844E0,1.088967E2,1.095929E1,0E0,0E0,3.920073E0,7.236012E0,1.1983986E0,0E0,1.3671875E-1,3.0351562E0,1.2333484E1,1.838385E1,0E0,0E0,0E0,0E0,0E0,0E0,0E0,0E0,1.4469306E0,0E0,0E0,1.1035156E-1,3.0621777E2,0E0,0E0,0E0,0E0,0E0,0E0,9.765625E-4,1.0661589E1,0E0,0E0,0E0,0E0,0E0,0E0],"parents":[2147483647,0,0,1,1,2,2,3,3,4,4,5,5,7,7,8,8,9,9,10,10,13,13,14,14,15,15,17,17,18,18,19,19,22,22,23,23,24,24,26,26,27,27,28,28,29,29,38,38,41,41,42,42,49,49,50,50],"right_children":[2,4,6,8,10,12,-1,14,16,18,20,-1,-1,22,24,26,-1,28,30,32,-1,-1,34,36,38,-1,40,42,44,46,-1,-1,-1,-1,-1,-1,-1,-1,48,-1,-1,50,52,-1,-1,-1,-1,-1,-1,54,56,-1,-1,-1,-1,-1,-1],"split_conditions":[1.2049252E0,2.6210179E-3,-2.5072244E-1,-3.75822E-3,1.4530555E0,-4.569601E-1,-6.448275E-2,-4.949598E-3,-3.440915E-1,1.7399626E0,2.778852E-3,6.4713195E-2,2.2202401E-1,3.606499E0,-3.384948E-2,-6.642512E-1,-6.149075E-2,8.886796E-1,-2.586654E-1,-6.071472E-1,-6.4416155E-2,-6.386551E-2,1.4176136E0,1.4929391E0,-9.066889E-2,-4.1017987E-2,-1.16947904E-1,9.2696387E-1,3.948708E0,-2.3184219E-1,-6.382298E-2,-3.7593674E-2,2.2032292E-1,-6.1804153E-2,6.828702E-2,1.5997687E-1,-4.366984E-2,-6.37614E-2,-6.0596126E-1,6.4713195E-2,2.2199392E-1,1.1641299E0,-5.1847454E-2,-4.8193883E-2,1.6349564E-1,-4.7509234E-2,2.112556E-1,6.4713195E-2,-4.366984E-2,6.661818E0,-5.720912E-2,2.1642835E-1,-6.45066E-2,-6.441303E-2,-5.5339165E-2,1.4115703E-1,-6.340061E-2],"split_indices":[10,29,4,44,34,14,0,44,0,48,28,0,0,37,12,42,0,12,23,1,0,0,39,1,22,0,5,10,9,8,0,0,0,0,0,0,0,0,1,0,0,40,3,0,0,0,0,0,0,9,3,0,0,0,0,0,0],"split_type":[0,0,0,0,0,0,0,0,0,0,0,0,0,0,0,0,0,0,0,0,0,0,0,0,0,0,0,0,0,0,0,0,0,0,0,0,0,0,0,0,0,0,0,0,0,0,0,0,0,0,0,0,0,0,0,0,0],"sum_hessian":[3.7192367E4,3.0666816E4,6.5255522E3,4.7708203E3,2.5895996E4,5.1375376E3,1.3880145E3,1.71984E3,3.05098E3,2.51985E4,6.9749646E2,1.0467681E0,5.136491E3,1.6273755E3,9.2464516E1,3.0307427E3,2.0237516E1,2.5085797E4,1.12702034E2,1.2770571E2,5.697908E2,1.6029509E3,2.442459E1,6.2806087E0,8.618391E1,1.7446135E0,3.028998E3,2.5073934E4,1.1863372E1,2.2331053E1,9.037098E1,1.3956908E0,1.2631002E2,2.2679976E1,1.7446135E0,4.1870723E0,2.0935361E0,8.30436E1,3.1403043E0,1.0467681E0,3.0279512E3,2.2182412E4,2.8915225E3,9.07199E0,2.7913816E0,2.7913816E0,1.953967E1,1.0467681E0,2.0935361E0,2.212449E4,5.792117E1,3.8381496E1,2.8531409E3,2.2074943E4,4.9547024E1,1.7446135E0,5.6176556E1],"tree_param":{"num_deleted":"0","num_feature":"52","num_nodes":"57","size_leaf_vector":"1"}},{"base_weights":[1.6516251E-6,-4.1734892E-1,2.0612826E0,-4.5701998E-1,1.7419791E0,-3.4451303E-1,2.215368E0,-5.6004703E-1,3.1273144E-1,2.2031014E0,-6.382298E-2,2.1657436E-1,-6.433852E-2,2.2202945E-1,-5.8725573E-2,-5.9075063E-1,1.4018902E0,-4.939203E-1,2.203684E0,2.2137628E0,-4.1017987E-2,-5.041819E-2,-6.3739914E-1,-6.373502E-2,1.8955148E0,-5.9186774E-1,2.1844559E0,2.2148478E0,-3.4809306E-1,6.4713195E-2,2.2158973E-1,-4.3575656E-1,1.8843406E0,4.4613907E-1,-6.395706E-1,2.1344807E0,-6.2350024E-2,1.7023365E0,-6.011807E-1,2.1954034E-1,6.4713195E-2,-3.7593674E-2,2.2185902E-1,-5.0154965E-2,1.5855676E-2,1.7788884E-1,-5.917942E-1,-6.2123217E-2,2.0867405E0,2.1067503E-1,-6.242443E-2,-6.4002365E-1,1.5997687E-1,2.1831424E0,-5.417777E-2,1.9746205E-1,-3.300184E-2,-6.336278E-1,-4.4754304E-2,1.2528197E-1,-6.421027E-2,-2.6144434E-2,-6.4392604E-2,2.147126E-1,-5.6441274E-2,-6.413371E-2,6.9639795E-3,2.1896508E-1,6.828702E-2,-1.5089487E-2,-6.441087E-2,1.8023072E-1,-5.0105352E-2],"categories":[],"categories_nodes":[],"categories_segments":[],"categories_sizes":[],"default_left":[0,0,0,0,0,0,0,0,0,0,0,0,0,0,0,0,0,0,0,0,0,0,0,0,0,0,0,0,0,0,0,0,0,0,0,0,0,0,0,0,0,0,0,0,0,0,0,0,0,0,0,0,0,0,0,0,0,0,0,0,0,0,0,0,0,0,0,0,0,0,0,0,0],"id":3,"left_children":[1,3,5,7,9,11,13,15,17,19,-1,-1,-1,-1,-1,21,23,25,27,29,-1,31,33,-1,35,37,39,41,43,-1,-1,45,47,49,51,53,-1,55,57,-1,-1,-1,-1,-1,-1,59,61,-1,63,-1,-1,65,-1,67,-1,-1,-1,69,71,-1,-1,-1,-1,-1,-1,-1,-1,-1,-1,-1,-1,-1,-1],"loss_changes":[3.1997451E4,2.6504849E3,2.3223613E3,2.4090205E3,6.1410046E2,2.8486368E2,8.256641E1,1.6145703E3,5.471234E3,1.3942871E1,0E0,0E0,0E0,0E0,0E0,6.6482227E2,4.1702014E2,6.609835E2,3.1324707E1,1.25E-1,0E0,1.5644559E3,5.7414062E1,0E0,2.0167798E2,5.287207E1,7.595825E-2,1.1189453E1,5.099409E-1,0E0,0E0,1.6765173E2,1.7804407E2,8.868115E1,2.5607422E1,4.0801147E1,0E0,6.225275E0,4.3620667E1,0E0,0E0,0E0,0E0,0E0,0E0,3.1415912E2,2.3861023E1,0E0,5.2874268E1,0E0,0E0,2.2628906E1,0E0,1.4238281E0,0E0,0E0,0E0,1.146051E1,1.1408307E2,0E0,0E0,0E0,0E0,0E0,0E0,0E0,0E0,0E0,0E0,0E0,0E0,0E0,0E0],"parents":[2147483647,0,0,1,1,2,2,3,3,4,4,5,5,6,6,7,7,8,8,9,9,15,15,16,16,17,17,18,18,19,19,21,21,22,22,24,24,25,25,26,26,27,27,28,28,31,31,32,32,33,33,34,34,35,35,37,37,38,38,45,45,46,46,48,48,51,51,53,53,57,57,58,58],"right_children":[2,4,6,8,10,12,14,16,18,20,-1,-1,-1,-1,-1,22,24,26,28,30,-1,32,34,-1,36,38,40,42,44,-1,-1,46,48,50,52,54,-1,56,58,-1,-1,-1,-1,-1,-1,60,62,-1,64,-1,-1,66,-1,68,-1,-1,-1,70,72,-1,-1,-1,-1,-1,-1,-1,-1,-1,-1,-1,-1,-1,-1],"split_conditions":[1.7424209E0,3.606499E0,-1.579553E-1,2.5155827E-1,-3.440915E-1,-3.3415043E-1,-3.440915E-1,3.9996963E-2,3.591686E-1,1.4176136E0,-6.382298E-2,2.1657436E-1,-6.433852E-2,2.2202945E-1,-5.8725573E-2,-7.4879724E-1,2.7477357E-3,2.377726E0,-1.565839E-1,-6.071723E-1,-4.1017987E-2,-5.6251017E-3,-3.3850152E-2,-6.373502E-2,-3.440915E-1,-2.3935253E-2,-5.3979952E-2,-1.730407E-1,-3.1555137E-1,6.4713195E-2,2.2158973E-1,-2.2387145E-1,1.4176136E0,-6.6546416E-1,2.0629015E0,1.8066524E0,-6.2350024E-2,-3.440915E-1,5.383816E-3,2.1954034E-1,6.4713195E-2,-3.7593674E-2,2.2185902E-1,-5.0154965E-2,1.5855676E-2,-3.440915E-1,-1.5761244E-1,-6.2123217E-2,-2.2387245E-1,2.1067503E-1,-6.242443E-2,6.067235E-1,1.5997687E-1,-2.194065E-1,-5.417777E-2,1.9746205E-1,-3.300184E-2,-6.9997525E-1,-1.6745044E-2,1.2528197E-1,-6.421027E-2,-2.6144434E-2,-6.4392604E-2,2.147126E-1,-5.6441274E-2,-6.413371E-2,6.9639795E-3,2.1896508E-1,6.828702E-2,-1.5089487E-2,-6.441087E-2,1.8023072E-1,-5.0105352E-2],"split_indices":[49,37,43,7,0,23,0,17,11,39,0,0,0,0,0,40,28,24,43,1,0,2,12,0,0,3,17,43,1,0,0,31,39,42,50,42,0,0,11,0,0,0,0,0,0,0,43,0,31,0,0,6,0,13,0,0,0,8,33,0,0,0,0,0,0,0,0,0,0,0,0,0,0],"split_type":[0,0,0,0,0,0,0,0,0,0,0,0,0,0,0,0,0,0,0,0,0,0,0,0,0,0,0,0,0,0,0,0,0,0,0,0,0,0,0,0,0,0,0,0,0,0,0,0,0,0,0,0,0,0,0,0,0,0,0,0,0,0,0,0,0,0,0,0,0,0,0,0,0],"sum_hessian":[3.7192367E4,3.0930602E4,6.2617666E3,3.0373373E4,5.5722955E2,3.7683652E2,5.88493E3,2.6788191E4,3.5851807E3,4.6685858E2,9.037098E1,3.9428265E1,3.3740826E2,5.8748115E3,1.0118758E1,2.6376113E4,4.120777E2,2.5136392E3,1.0715416E3,4.6511395E2,1.7446135E0,2.0963276E3,2.4279785E4,8.025222E1,3.318255E2,2.4257107E3,8.792852E1,1.0670056E3,4.535995E0,1.0467681E0,4.640672E2,1.7488005E3,3.47527E2,4.8151333E1,2.4231635E4,3.0321384E2,2.8611662E1,9.07199E0,2.4166387E3,8.688175E1,1.0467681E0,1.3956908E0,1.06561E3,3.489227E0,1.0467681E0,3.5450546E2,1.3942952E3,2.582028E1,3.2170673E2,1.8492903E1,2.965843E1,2.4227447E4,4.1870723E0,2.9797998E2,5.2338405E0,8.025222E0,1.0467681E0,2.28335E3,1.3328847E2,1.5317706E2,2.013284E2,1.9086072E2,1.2034344E3,3.1472827E2,6.978454E0,2.4182785E4,4.4662106E1,2.9623538E2,1.7446135E0,4.884918E1,2.234501E3,2.582028E1,1.0746819E2],"tree_param":{"num_deleted":"0","num_feature":"52","num_nodes":"73","size_leaf_vector":"1"}},{"base_weights":[1.6516251E-6,-2.4775796E-1,2.2168689E0,-3.9410216E-1,1.2901405E0,2.2190073E0,-2.479077E-1,-4.6146342E-1,1.0320036E0,4.7481477E-1,1.8488808E0,1.2756782E0,2.220077E-1,1.5855676E-2,-4.366984E-2,-4.8396346E-1,2.1792328E0,2.2178808E-1,-5.859375E-1,1.8856043E0,-8.1901535E-2,2.1705909E0,9.683684E-1,-4.5829834E-3,1.7616802E-1,-5.0019336E-1,2.0562825E0,2.2115527E-1,-2.479077E-1,2.0381342E-1,-6.4067173E-1,-1.5166841E-1,2.1689181E0,-2.84589E-1,2.0935419E0,2.1934234E-1,1.8100504E0,2.2001334E-1,5.9176916E-1,-5.110932E-1,1.8502935E0,2.207437E-1,4.4824502E-1,-4.366984E-2,1.5855676E-2,-6.441622E-2,4.5889556E-2,-6.267734E-2,1.9423388E-1,2.2130032E-1,-5.2872907E-2,-4.53696E-1,2.1764341E-1,-4.5784112E-2,2.1889877E-1,-5.472645E-2,1.9920405E0,-5.0171363E-1,1.7707292E0,-5.336904E-1,5.194837E-1,2.1930256E0,-5.507316E-1,-2.1396771E-1,1.3662558E0,-5.546724E-1,2.139974E-1,1.5872403E0,2.1399581E-1,-5.753107E-1,1.8433225E-1,1.9319893E0,-4.33913E-1,-5.6068093E-2,8.305562E-3,2.0330623E-1,-2.3078451E-2,2.2014368E-1,6.4713195E-2,1.5855676E-2,-6.0583092E-2,1.13570705E-1,-4.760767E-2,1.704029E-1,-3.300184E-2,-6.1236203E-2,2.014941E-1,1.4406345E-2,1.9479667E-1,-6.025691E-2,1.4115703E-1,1.15501024E-1,1.978622E-1,6.4713195E-2,-5.8902156E-2],"categories":[],"categories_nodes":[],"categories_segments":[],"categories_sizes":[],"default_left":[0,0,0,0,0,0,0,0,0,0,0,0,0,0,0,0,0,0,0,0,0,0,0,0,0,0,0,0,0,0,0,0,0,0,0,0,0,0,0,0,0,0,0,0,0,0,0,0,0,0,0,0,0,0,0,0,0,0,0,0,0,0,0,0,0,0,0,0,0,0,0,0,0,0,0,0,0,0,0,0,0,0,0,0,0,0,0,0,0,0,0,0,0,0,0],"id":4,"left_children":[1,3,5,7,9,11,13,15,17,19,21,23,-1,-1,-1,25,27,-1,29,31,33,35,37,-1,-1,39,41,-1,43,-1,45,47,49,51,53,-1,55,-1,57,59,61,-1,63,-1,-1,-1,-1,-1,-1,-1,-1,65,-1,-1,-1,-1,67,69,71,73,75,77,79,81,83,85,-1,87,-1,89,-1,91,93,-1,-1,-1,-1,-1,-1,-1,-1,-1,-1,-1,-1,-1,-1,-1,-1,-1,-1,-1,-1,-1,-1],"loss_changes":[2.0429016E4,7.5300557E3,2.0253906E1,2.9351616E3,1.3235024E3,9.375E-1,3.8695475E-1,1.734331E3,2.6456191E3,9.296858E2,4.8644727E2,4.3085546E0,0E0,0E0,0E0,1.1936001E3,1.9895996E1,0E0,8.514072E1,1.9364001E2,3.7520544E2,6.4213867E0,2.1362491E2,0E0,0E0,7.37353E2,4.369397E1,0E0,3.8695475E-1,0E0,2.4929962E0,4.2826935E1,3.6145508E1,3.247937E2,1.8664429E1,0E0,3.579834E1,0E0,4.6009598E2,6.6658984E2,1.10566315E2,0E0,1.0657613E1,0E0,0E0,0E0,0E0,0E0,0E0,0E0,0E0,1.9207312E2,0E0,0E0,0E0,0E0,1.1133423E0,3.3089333E1,6.185388E1,4.661123E2,6.981826E2,9.008789E-2,7.7604866E-1,4.3506403E0,4.7338285E0,1.0534798E2,0E0,1.2228622E1,0E0,1.0636883E1,0E0,3.5158691E0,2.4795887E0,0E0,0E0,0E0,0E0,0E0,0E0,0E0,0E0,0E0,0E0,0E0,0E0,0E0,0E0,0E0,0E0,0E0,0E0,0E0,0E0,0E0,0E0],"parents":[2147483647,0,0,1,1,2,2,3,3,4,4,5,5,6,6,7,7,8,8,9,9,10,10,11,11,15,15,16,16,18,18,19,19,20,20,21,21,22,22,25,25,26,26,28,28,30,30,31,31,32,32,33,33,34,34,36,36,38,38,39,39,40,40,42,42,51,51,56,56,57,57,58,58,59,59,60,60,61,61,62,62,63,63,64,64,65,65,67,67,69,69,71,71,72,72],"right_children":[2,4,6,8,10,12,14,16,18,20,22,24,-1,-1,-1,26,28,-1,30,32,34,36,38,-1,-1,40,42,-1,44,-1,46,48,50,52,54,-1,56,-1,58,60,62,-1,64,-1,-1,-1,-1,-1,-1,-1,-1,66,-1,-1,-1,-1,68,70,72,74,76,78,80,82,84,86,-1,88,-1,90,-1,92,94,-1,-1,-1,-1,-1,-1,-1,-1,-1,-1,-1,-1,-1,-1,-1,-1,-1,-1,-1,-1,-1,-1],"split_conditions":[5.347117E-1,-1.5521249E-1,8.886796E-1,2.3757482E0,-3.343902E-1,-5.81553E-2,-6.0719687E-1,1.8066524E0,1.0023859E0,3.0528523E-3,-2.4240524E-2,-3.440915E-1,2.220077E-1,1.5855676E-2,-4.366984E-2,1.0919694E0,3.0995568E-3,2.2178808E-1,-7.048351E-1,-6.071723E-1,-1.2467774E-1,-2.11537E-1,-6.6546416E-1,-4.5829834E-3,1.7616802E-1,1.8236315E-2,-1.579553E-1,2.2115527E-1,-6.071954E-1,2.0381342E-1,-5.397073E-2,-1.4502434E-1,1.2707171E0,-8.958609E-2,-2.2387145E-1,2.1934234E-1,-6.6323658E-3,2.2001334E-1,-6.6440284E-1,-5.371815E-2,-1.558982E-1,2.207437E-1,-9.092484E-2,-4.366984E-2,1.5855676E-2,-6.441622E-2,4.5889556E-2,-6.267734E-2,1.9423388E-1,2.2130032E-1,-5.2872907E-2,-5.3944E-2,2.1764341E-1,-4.5784112E-2,2.1889877E-1,-5.472645E-2,-6.071948E-1,2.6443452E-3,1.6495211E-2,-1.1653999E-1,2.7477357E-3,-8.3888754E-2,2.4883741E-1,-3.382656E-2,3.8167956E-1,-3.35303E-2,2.139974E-1,7.837648E-3,2.1399581E-1,3.9705503E0,1.8433225E-1,-6.6379637E-1,-1.7376462E-2,-5.6068093E-2,8.305562E-3,2.0330623E-1,-2.3078451E-2,2.2014368E-1,6.4713195E-2,1.5855676E-2,-6.0583092E-2,1.13570705E-1,-4.760767E-2,1.704029E-1,-3.300184E-2,-6.1236203E-2,2.014941E-1,1.4406345E-2,1.9479667E-1,-6.025691E-2,1.4115703E-1,1.15501024E-1,1.978622E-1,6.4713195E-2,-5.8902156E-2],"split_indices":[9,43,12,0,0,3,1,42,38,45,12,0,0,0,0,4,45,0,35,1,48,32,42,0,0,2,43,0,1,0,17,13,50,22,31,0,5,0,42,17,43,0,22,0,0,0,0,0,0,0,0,17,0,0,0,0,1,29,44,47,28,27,6,12,8,12,0,0,0,0,0,42,12,0,0,0,0,0,0,0,0,0,0,0,0,0,0,0,0,0,0,0,0,0,0],"split_type":[0,0,0,0,0,0,0,0,0,0,0,0,0,0,0,0,0,0,0,0,0,0,0,0,0,0,0,0,0,0,0,0,0,0,0,0,0,0,0,0,0,0,0,0,0,0,0,0,0,0,0,0,0,0,0,0,0,0,0,0,0,0,0,0,0,0,0,0,0,0,0,0,0,0,0,0,0,0,0,0,0,0,0,0,0,0,0,0,0,0,0,0,0,0,0],"sum_hessian":[3.7192367E4,3.345436E4,3.7380088E3,3.0548182E4,2.9061772E3,3.7348687E3,3.1403043E0,2.9170984E4,1.3771979E3,1.182499E3,1.7236781E3,5.582763E0,3.729286E3,1.0467681E0,2.0935361E0,2.8925344E4,2.4564159E2,7.94497E2,5.827009E2,3.3391904E2,8.4858E2,1.2613556E3,4.6232257E2,1.7446135E0,3.8381498E0,2.8742508E4,1.828355E2,2.4250128E2,3.1403043E0,1.1165526E1,5.715354E2,4.0823956E1,2.9309506E2,7.7705084E2,7.152915E1,1.1814523E3,7.99033E1,1.0711927E2,3.552033E2,2.8610615E4,1.3189278E2,1.6678505E2,1.6050444E1,2.0935361E0,1.0467681E0,5.701397E2,1.3956908E0,3.38455E1,6.978454E0,2.8855908E2,4.535995E0,7.278527E2,4.91981E1,2.4424589E0,6.908669E1,5.582763E0,7.432053E1,1.8458011E2,1.706232E2,2.7997209E4,6.134061E2,1.15493416E2,1.6399366E1,9.769835E0,6.2806087E0,7.0133466E2,2.6518126E1,2.3028898E1,5.1291637E1,1.7969519E2,4.8849177E0,1.5910875E2,1.1514449E1,2.6823432E4,1.173776E3,2.0272409E2,4.10682E2,1.1444665E2,1.0467681E0,1.0467681E0,1.5352599E1,1.0467681E0,8.723067E0,5.2338405E0,1.0467681E0,6.866799E2,1.4654754E1,4.8849177E0,1.814398E1,1.7795058E2,1.7446135E0,1.0467681E1,1.4864107E2,1.0467681E0,1.0467681E1],"tree_param":{"num_deleted":"0","num_feature":"52","num_nodes":"95","size_leaf_vector":"1"}},{"base_weights":[1.6516251E-6,1.7070571E0,-6.2739944E-1,-6.448941E-2,2.1621444E0,-4.374469E-1,-6.440266E-1,2.2191837E-1,-6.414461E-2,-5.9753585E-1,7.905026E-1,-6.442642E-2,-5.269005E-1,-6.3025016E-1,1.12145E0,-6.398183E-2,2.021081E0,6.3583374E-1,-6.328689E-2,-6.333351E-1,-6.5812E-2,-6.0003716E-2,2.1254914E-1,2.1947346E0,2.3610614E-1,-4.366984E-2,1.5028296E-1,-6.354253E-1,2.502598E-1,1.5028296E-1,-5.764546E-2,2.202636E-1,6.4713195E-2,-5.764546E-2,1.7616802E-1,-2.8336832E-1,-6.369729E-1,-4.7509234E-2,1.2937279E-1,-4.629927E-2,6.4713195E-2,-6.442196E-2,-6.0314488E-2],"categories":[],"categories_nodes":[],"categories_segments":[],"categories_sizes":[],"default_left":[0,0,0,0,0,0,0,0,0,0,0,0,0,0,0,0,0,0,0,0,0,0,0,0,0,0,0,0,0,0,0,0,0,0,0,0,0,0,0,0,0,0,0],"id":5,"left_children":[1,3,5,-1,7,9,11,-1,-1,13,15,-1,17,19,21,-1,23,25,-1,27,29,-1,-1,31,33,-1,-1,35,37,-1,-1,-1,-1,-1,-1,39,41,-1,-1,-1,-1,-1,-1],"loss_changes":[3.9835484E4,1.0700799E4,8.562109E1,0E0,1.3408438E3,4.314243E2,3.564453E-1,0E0,0E0,1.098017E2,4.4708112E2,0E0,7.318324E0,3.274292E0,6.451935E1,0E0,4.1755737E1,5.4796433E0,0E0,3.6569214E0,1.00521E1,0E0,0E0,9.301758E-2,1.7393776E1,0E0,0E0,8.491211E-1,4.54064E0,0E0,0E0,0E0,0E0,0E0,0E0,1.9830551E0,7.244873E-2,0E0,0E0,0E0,0E0,0E0,0E0],"parents":[2147483647,0,0,1,1,2,2,4,4,5,5,6,6,9,9,10,10,12,12,13,13,14,14,16,16,17,17,19,19,20,20,23,23,24,24,27,27,28,28,35,35,36,36],"right_children":[2,4,6,-1,8,10,12,-1,-1,14,16,-1,18,20,22,-1,24,26,-1,28,30,-1,-1,32,34,-1,-1,36,38,-1,-1,-1,-1,-1,-1,40,42,-1,-1,-1,-1,-1,-1],"split_conditions":[-6.071948E-1,1.0023859E0,-2.2399387E-1,-6.448941E-2,-7.897618E-3,-2.1995908E-1,1.9678225E-1,2.2191837E-1,-6.414461E-2,1.6148707E0,1.0023859E0,-6.442642E-2,-5.1847454E-2,-2.4764732E-1,-2.5661194E-1,-6.398183E-2,-3.3415043E-1,-2.391248E-1,-6.328689E-2,-2.2071578E-1,-4.488844E-3,-6.0003716E-2,2.1254914E-1,1.8066524E0,-2.2662054E-1,-4.366984E-2,1.5028296E-1,-3.4937596E-1,-6.984384E-1,1.5028296E-1,-5.764546E-2,2.202636E-1,6.4713195E-2,-5.764546E-2,1.7616802E-1,9.4414556E-1,2.9344326E-3,-4.7509234E-2,1.2937279E-1,-4.629927E-2,6.4713195E-2,-6.442196E-2,-6.0314488E-2],"split_indices":[1,38,6,0,2,31,12,0,0,27,38,0,3,7,9,0,23,7,0,31,2,0,0,42,24,0,0,0,8,0,0,0,0,0,0,48,28,0,0,0,0,0,0],"split_type":[0,0,0,0,0,0,0,0,0,0,0,0,0,0,0,0,0,0,0,0,0,0,0,0,0,0,0,0,0,0,0,0,0,0,0,0,0,0,0,0,0,0,0],"sum_hessian":[3.7192367E4,9.995239E3,2.7197129E4,1.620397E3,8.374843E3,2.1912346E3,2.5005895E4,8.208058E3,1.6678505E2,1.9389635E3,2.5227112E2,2.4950764E4,5.5129787E1,1.9033733E3,3.5590115E1,1.1688911E2,1.35382E2,4.1870723E0,5.0942715E1,1.8929056E3,1.0467681E1,1.3259063E1,2.2331053E1,1.23169716E2,1.2212295E1,2.0935361E0,2.0935361E0,1.8887186E3,4.1870723E0,2.0935361E0,8.374145E0,1.2212295E2,1.0467681E0,8.374145E0,3.8381498E0,9.07199E0,1.8796466E3,2.7913816E0,1.3956908E0,8.025222E0,1.0467681E0,1.5331664E3,3.4648026E2],"tree_param":{"num_deleted":"0","num_feature":"52","num_nodes":"43","size_leaf_vector":"1"}},{"base_weights":[-2.7993283E-5,-4.3268538E-1,1.4743645E1,-4.524487E-1,1.3807928E1,2.539078E1,-4.9564164E-2,2.0281331E-1,-4.8277542E-1,2.0701883E0,-3.038649E-2,2.9230902E0,2.9441502E1,-3.8510454E-1,1.9498411E0,-5.050345E-1,1.8951295E-1,-4.2731263E-2,6.9698195E0,5.8064026E-1,2.9893165E0,-4.886919E-1,-1.3301045E-1,9.907474E0,-4.9072813E-2,-5.063339E-1,-3.7849545E-1,-4.6748272E-1,3.7533538E0,1.3449386E0,-2.9665492E-2,-5.0121583E-2,-2.2716108E-1,2.133993E0,-4.910078E-2,-4.156682E-2,2.1061401E0,-5.0666403E-2,-3.1874612E-1,-4.6319294E-1,1.0620848E-1,-5.0211787E-2,5.619112E-1,9.718645E0,-4.5854677E-2,-2.7062017E-2,2.4118302E-2,2.4118302E-2,-3.9146684E-2,4.9362513E-1,-3.6030278E-2,-4.347105E-2,2.2958327E-2,-4.921067E-2,1.2125011E-3,1.2349091E-1,-2.8389102E-2,-3.7277054E-2,1.7035471E1,1.9646384E0,5.1213014E-1],"categories":[],"categories_nodes":[],"categories_segments":[],"categories_sizes":[],"default_left":[0,0,0,0,0,0,0,0,0,0,0,0,0,0,0,0,0,0,0,0,0,0,0,0,0,0,0,0,0,0,0,0,0,0,0,0,0,0,0,0,0,0,0,0,0,0,0,0,0,0,0,0,0,0,0,0,0,0,0,0,0],"id":6,"left_children":[1,3,5,7,9,11,-1,13,15,-1,-1,17,19,21,23,25,27,-1,29,-1,-1,31,33,35,-1,37,39,41,43,-1,45,-1,47,49,-1,-1,-1,-1,51,53,-1,-1,55,57,-1,-1,-1,-1,-1,-1,-1,-1,-1,-1,-1,-1,-1,-1,59,-1,-1],"loss_changes":[2.1529373E4,9.2904974E2,1.5624504E4,6.51839E1,4.5145587E2,5.0708477E3,0E0,1.5028166E2,4.6944763E1,0E0,0E0,1.3538133E2,3.3773438E2,2.8013077E0,7.199813E2,3.0670166E-1,2.3837984E2,0E0,2.0362431E2,0E0,0E0,1.3973045E-1,2.810655E1,1.00931036E3,0E0,2.3986816E-2,4.7337236E0,3.3561287E0,4.024728E2,0E0,2.7096453E-1,0E0,5.07411E-1,3.4868034E1,0E0,0E0,0E0,0E0,6.0606724E-1,4.6678638E-1,0E0,0E0,2.2167268E0,4.9375598E2,0E0,0E0,0E0,0E0,0E0,0E0,0E0,0E0,0E0,0E0,0E0,0E0,0E0,0E0,1.9084595E1,0E0,0E0],"parents":[2147483647,0,0,1,1,2,2,3,3,4,4,5,5,7,7,8,8,11,11,12,12,13,13,14,14,15,15,16,16,18,18,21,21,22,22,23,23,25,25,26,26,27,27,28,28,30,30,32,32,33,33,38,38,39,39,42,42,43,43,58,58],"right_children":[2,4,6,8,10,12,-1,14,16,-1,-1,18,20,22,24,26,28,-1,30,-1,-1,32,34,36,-1,38,40,42,44,-1,46,-1,48,50,-1,-1,-1,-1,52,54,-1,-1,56,58,-1,-1,-1,-1,-1,-1,-1,-1,-1,-1,-1,-1,-1,-1,60,-1,-1],"split_conditions":[4.766227E0,2.1821772E-1,4.8073688E0,-7.07292E-1,2.3185281E-1,-5.400484E-2,-4.9564164E-2,-2.639542E-2,-8.378567E-2,2.0701883E0,-3.038649E-2,-9.088645E-2,-1.7723729E-1,-5.847256E-1,-3.440915E-1,3.3876568E-1,7.7367544E-1,-4.2731263E-2,-9.066889E-2,5.8064026E-1,2.9893165E0,-1.883208E-1,-2.9020038E-1,-3.4906048E-1,-4.9072813E-2,-8.380216E-2,4.0100954E-2,6.9822073E-1,-4.3436056E-1,1.3449386E0,-4.1396898E-1,-5.0121583E-2,-1.2703402E-1,-3.1183264E-1,-4.910078E-2,-4.156682E-2,2.1061401E0,-5.0666403E-2,3.80393E-2,-9.084463E-2,1.0620848E-1,-5.0211787E-2,-3.5350505E-1,2.8465139E-3,-4.5854677E-2,-2.7062017E-2,2.4118302E-2,2.4118302E-2,-3.9146684E-2,4.9362513E-1,-3.6030278E-2,-4.347105E-2,2.2958327E-2,-4.921067E-2,1.2125011E-3,1.2349091E-1,-2.8389102E-2,-3.7277054E-2,-3.382656E-2,1.9646384E0,5.1213014E-1],"split_indices":[43,2,43,33,2,17,0,31,27,0,0,22,30,42,0,3,7,0,22,0,0,31,42,0,0,27,11,7,16,0,16,0,13,0,0,0,0,0,3,22,0,0,1,29,0,0,0,0,0,0,0,0,0,0,0,0,0,0,12,0,0],"split_type":[0,0,0,0,0,0,0,0,0,0,0,0,0,0,0,0,0,0,0,0,0,0,0,0,0,0,0,0,0,0,0,0,0,0,0,0,0,0,0,0,0,0,0,0,0,0,0,0,0,0,0,0,0,0,0,0,0,0,0,0,0],"sum_hessian":[3.3730605E3,3.277842E3,9.521858E1,3.274266E3,3.575839E0,5.566284E1,3.9555744E1,1.4458415E2,3.129682E3,2.0885432E0,1.4872959E0,8.7655525E0,4.689729E1,1.0876247E2,3.5821682E1,3.0296218E3,1.000602E2,5.284647E0,3.4809053E0,1.1392053E0,4.5758083E1,7.642169E1,3.2340775E1,7.689636E0,2.8132044E1,2.995857E3,3.3764782E1,8.5218895E1,1.4841314E1,1.329073E0,2.1518323E0,7.205474E1,4.366954E0,3.7340622E0,2.8606712E1,4.493532E0,3.196104E0,2.9888953E3,6.9618106E0,3.2530643E1,1.2341392E0,8.294048E1,2.2784107E0,5.6010933E0,9.240221E0,1.1392053E0,1.012627E0,1.012627E0,3.354327E0,1.2974284E0,2.4366338E0,5.917539E0,1.0442716E0,3.0631968E1,1.8986757E0,1.012627E0,1.2657838E0,2.7530797E0,2.8480134E0,1.8037418E0,1.0442716E0],"tree_param":{"num_deleted":"0","num_feature":"52","num_nodes":"61","size_leaf_vector":"1"}},{"base_weights":[-8.551946E-2,-4.356142E-1,1.0154059E0,1.0450592E0,-5.0676525E-2,1.819395E0,2.7621046E-1,-4.9867272E-2,2.0081682E0,1.6721088E0,5.1432605E0,1.5439292E0,-5.051743E-2,-4.4252742E-2,2.1050391E0,5.9555215E-1,1.6390669E0,3.9066607E-1,7.7023804E-1,-5.2185316E-2,1.7700331E0,1.9701129E0,4.7712716E-1,-4.6372406E-2,1.691244E-1,-4.5541957E-2,1.9127691E0,2.0178469E-1,-2.953271E-2,2.0294507E0,-4.7088724E-2,1.9114819E0,7.0686597E-1,1.9766288E-1,-3.3933239E-3],"categories":[],"categories_nodes":[],"categories_segments":[],"categories_sizes":[],"default_left":[0,0,0,0,0,0,0,0,0,0,0,0,0,0,0,0,0,0,0,0,0,0,0,0,0,0,0,0,0,0,0,0,0,0,0],"id":7,"left_children":[1,3,5,7,-1,9,11,-1,13,15,17,19,-1,-1,21,-1,23,-1,-1,-1,25,27,-1,-1,-1,-1,29,-1,-1,31,-1,33,-1,-1,-1],"loss_changes":[1.3279961E3,2.7592093E2,4.9356604E2,1.7968195E2,0E0,1.8626294E2,4.3098788E2,0E0,1.8548248E1,4.439258E1,2.1833038E1,7.83931E1,0E0,0E0,1.6342773E1,0E0,4.2595398E1,0E0,0E0,0E0,4.843109E1,8.145569E0,0E0,0E0,0E0,0E0,4.0141724E1,0E0,0E0,6.644751E1,0E0,1.6897736E1,0E0,0E0,0E0],"parents":[2147483647,0,0,1,1,2,2,3,3,5,5,6,6,8,8,9,9,10,10,11,11,14,14,16,16,20,20,21,21,26,26,29,29,31,31],"right_children":[2,4,6,8,-1,10,12,-1,14,16,18,20,-1,-1,22,-1,24,-1,-1,-1,26,28,-1,-1,-1,-1,30,-1,-1,32,-1,34,-1,-1,-1],"split_conditions":[2.8625762E-1,2.6699454E-3,2.877562E-1,-2.1048146E-1,-5.0676525E-2,-2.5668417E-3,2.6699454E-3,-4.9867272E-2,-7.374464E-1,1.0023859E0,-2.3935253E-2,-7.374464E-1,-5.051743E-2,-4.4252742E-2,-6.06635E-1,5.9555215E-1,2.6987751E-3,3.9066607E-1,7.7023804E-1,-5.2185316E-2,-6.6546416E-1,-6.5826213E-1,4.7712716E-1,-4.6372406E-2,1.691244E-1,-4.5541957E-2,-1.5401253E-1,2.0178469E-1,-2.953271E-2,-6.0580105E-1,-4.7088724E-2,-6.6402376E-1,7.0686597E-1,1.9766288E-1,-3.3933239E-3],"split_indices":[0,28,0,0,0,44,28,0,40,38,3,40,0,0,42,0,29,0,0,0,42,42,0,0,0,0,43,0,0,42,0,42,0,0,0],"split_type":[0,0,0,0,0,0,0,0,0,0,0,0,0,0,0,0,0,0,0,0,0,0,0,0,0,0,0,0,0,0,0,0,0,0,0],"sum_hessian":[3.4433613E3,2.6130232E3,8.3033813E2,1.1917939E2,2.4938438E3,3.9703738E2,4.3330075E2,4.5973072E1,7.320632E1,3.8162976E2,1.5407616E1,1.6485846E2,2.684423E2,2.647982E0,7.0558334E1,1.549242E0,3.8008054E2,1.2091439E1,3.3161764E0,1.6134914E1,1.4872354E2,6.8814835E1,1.7435014E0,9.011673E0,3.7106885E2,8.831861E0,1.3989168E2,6.750183E1,1.3130041E0,1.3350511E2,6.3865643E0,1.31799E2,1.7061163E0,1.27512886E2,4.2861137E0],"tree_param":{"num_deleted":"0","num_feature":"52","num_nodes":"35","size_leaf_vector":"1"}},{"base_weights":[-5.426349E-3,3.4160037E0,-5.3421553E-2,3.5183122E0,-5.232955E-2,3.542375E0,-4.8830215E-2,3.5583558E0,-4.668817E-2,-8.65327E-2,3.5679486E0,7.278631E-2,-4.209238E-2,3.5721612E-1,-3.3317495E-2,-2.7206078E-2,2.2211654E-2],"categories":[],"categories_nodes":[],"categories_segments":[],"categories_sizes":[],"default_left":[0,0,0,0,0,0,0,0,0,0,0,0,0,0,0,0,0],"id":8,"left_children":[1,3,-1,5,-1,7,-1,9,-1,11,13,-1,-1,-1,15,-1,-1],"loss_changes":[2.476129E4,7.402129E2,0E0,1.739043E2,0E0,1.154043E2,0E0,6.213867E1,0E0,1.8363509E0,2.6876953E1,0E0,0E0,0E0,2.4652082E-1,0E0,0E0],"parents":[2147483647,0,0,1,1,3,3,5,5,7,7,9,9,10,10,14,14],"right_children":[2,4,-1,6,-1,8,-1,10,-1,12,14,-1,-1,-1,16,-1,-1],"split_conditions":[-3.4906048E-1,-2.5661194E-1,-5.3421553E-2,2.8462637E-2,-5.232955E-2,-1.4646983E-1,-4.8830215E-2,3.0684203E-3,-4.668817E-2,-6.071472E-1,-8.369546E-2,7.278631E-2,-4.209238E-2,3.5721612E-1,-5.3988248E-2,-2.7206078E-2,2.2211654E-2],"split_indices":[0,9,0,2,0,43,0,45,0,1,27,0,0,0,17,0,0],"split_type":[0,0,0,0,0,0,0,0,0,0,0,0,0,0,0,0,0],"sum_hessian":[1.3684196E4,1.83108E3,1.1853116E4,1.7848325E3,4.624747E1,1.7742924E3,1.0540212E1,1.7673602E3,6.932092E0,4.6181636E0,1.7627421E3,1.0017531E0,3.6164105E0,1.7606906E3,2.0515242E0,1.0267618E0,1.0247625E0],"tree_param":{"num_deleted":"0","num_feature":"52","num_nodes":"17","size_leaf_vector":"1"}},{"base_weights":[4.1678743E-3,-3.2589626E-1,1.357365E0,1.0159318E0,-6.0855985E-1,1.8002425E-1,-6.315992E-2,-6.181435E-1,1.7818766E0,-6.227352E-1,-1.1781344E-1,-6.2529886E-1,-4.8896113E-1,1.7955015E0,-6.0711283E-2,-6.250025E-1,-1.3755374E-1,1.7648168E0,-6.310991E-2,-6.271288E-2,-4.839936E-1,8.692309E-1,-6.0579085E-1,-4.042149E-2,1.7966965E-1,-6.253715E-1,1.0331105E-1,1.5065907E0,-6.257586E-2,-3.6873028E-2,1.7872089E-1,-6.0391396E-2,6.512713E-2,-4.3055978E-2,1.4251429E-1,-6.289329E-2,-3.8469133E-3,-6.29633E-1,-5.9272724E-1,-4.683143E-1,1.4289229E-1,-4.663957E-2,1.7575622E-1,6.305896E-2,-4.3160375E-2,-6.2986076E-1,-5.3406274E-1,1.7685026E-1,-6.3181065E-2,-2.4760056E-1,-5.4119255E-2,-6.1552282E-2,-6.3132875E-2,1.2569179E-1,-6.2096156E-2,1.6984133E-2,-4.3250605E-2],"categories":[],"categories_nodes":[],"categories_segments":[],"categories_sizes":[],"default_left":[0,0,0,0,0,0,0,0,0,0,0,0,0,0,0,0,0,0,0,0,0,0,0,0,0,0,0,0,0,0,0,0,0,0,0,0,0,0,0,0,0,0,0,0,0,0,0,0,0,0,0,0,0,0,0,0,0],"id":9,"left_children":[1,3,5,7,9,-1,-1,11,13,15,17,19,21,23,-1,25,27,29,-1,-1,31,33,35,-1,-1,37,39,41,-1,-1,-1,-1,-1,-1,-1,-1,43,45,47,49,-1,-1,-1,-1,-1,51,53,-1,-1,55,-1,-1,-1,-1,-1,-1,-1],"loss_changes":[1.6450969E4,1.1231364E4,6.363078E3,6.4501445E3,1.7007324E2,0E0,0E0,1.2149048E0,1.15288086E2,2.6063477E1,6.6584485E2,9.863281E-2,1.4954723E1,9.897461E0,0E0,6.423828E0,9.072413E1,7.712097E0,0E0,0E0,3.696651E0,6.114287E0,1.172102E0,0E0,0E0,2.9160156E0,1.0399051E1,1.3645523E1,0E0,0E0,0E0,0E0,0E0,0E0,0E0,0E0,1.392351E0,1.19140625E-1,2.546983E2,2.2426844E-2,0E0,0E0,0E0,0E0,0E0,4.9804688E-2,9.538664E0,0E0,0E0,4.020703E-1,0E0,0E0,0E0,0E0,0E0,0E0,0E0],"parents":[2147483647,0,0,1,1,2,2,3,3,4,4,7,7,8,8,9,9,10,10,11,11,12,12,13,13,15,15,16,16,17,17,20,20,21,21,22,22,25,25,26,26,27,27,36,36,37,37,38,38,39,39,45,45,46,46,49,49],"right_children":[2,4,6,8,10,-1,-1,12,14,16,18,20,22,24,-1,26,28,30,-1,-1,32,34,36,-1,-1,38,40,42,-1,-1,-1,-1,-1,-1,-1,-1,44,46,48,50,-1,-1,-1,-1,-1,52,54,-1,-1,56,-1,-1,-1,-1,-1,-1,-1],"split_conditions":[1.2049252E0,2.6210179E-3,-2.5072244E-1,-3.75822E-3,1.4530555E0,1.8002425E-1,-6.315992E-2,-4.949598E-3,-3.440915E-1,1.7399626E0,2.778852E-3,3.606499E0,-3.384948E-2,-6.642512E-1,-6.0711283E-2,8.886796E-1,-2.586654E-1,-6.071472E-1,-6.310991E-2,-6.271288E-2,1.4176136E0,-6.642512E-1,-9.066889E-2,-4.042149E-2,1.7966965E-1,9.2696387E-1,3.948708E0,-2.3184219E-1,-6.257586E-2,-3.6873028E-2,1.7872089E-1,-6.0391396E-2,6.512713E-2,-4.3055978E-2,1.4251429E-1,-6.289329E-2,-6.0596126E-1,1.1641299E0,-5.1847454E-2,-7.066795E-1,1.4289229E-1,-4.663957E-2,1.7575622E-1,6.305896E-2,-4.3160375E-2,-7.049481E-1,-5.720912E-2,1.7685026E-1,-6.3181065E-2,-1.565839E-1,-5.4119255E-2,-6.1552282E-2,-6.3132875E-2,1.2569179E-1,-6.2096156E-2,1.6984133E-2,-4.3250605E-2],"split_indices":[10,29,4,44,34,0,0,44,0,48,28,37,12,42,0,12,23,1,0,0,39,42,22,0,0,10,9,8,0,0,0,0,0,0,0,0,1,40,3,33,0,0,0,0,0,35,3,0,0,43,0,0,0,0,0,0,0],"split_type":[0,0,0,0,0,0,0,0,0,0,0,0,0,0,0,0,0,0,0,0,0,0,0,0,0,0,0,0,0,0,0,0,0,0,0,0,0,0,0,0,0,0,0,0,0,0,0,0,0,0,0,0,0,0,0,0,0],"sum_hessian":[3.683059E4,2.9609234E4,7.2213564E3,5.1515923E3,2.4457643E4,5.9063086E3,1.3150477E3,1.6441458E3,3.5074468E3,2.3770748E4,6.868944E2,1.554218E3,8.9927704E1,3.4878035E3,1.9643362E1,2.3659895E4,1.108521E2,1.466335E2,5.402609E2,1.530954E3,2.3264032E1,6.6126647E0,8.331503E1,1.7104976E0,3.4860928E3,2.3648055E4,1.1840413E1,2.490218E1,8.594991E1,1.3623258E0,1.4527118E2,2.1464712E1,1.7993212E0,2.0485027E0,4.5641623E0,8.018736E1,3.1276722E0,2.090125E4,2.7468054E3,8.724839E0,3.1155741E0,2.7133214E0,2.2188858E1,1.0685911E0,2.059081E0,2.0845975E4,5.5274124E1,4.4004726E1,2.7028008E3,3.2573433E0,5.4674954E0,1.9750922E3,1.8870883E4,1.9347543E0,5.333937E1,1.0249317E0,2.2324116E0],"tree_param":{"num_deleted":"0","num_feature":"52","num_nodes":"57","size_leaf_vector":"1"}},{"base_weights":[4.2218445E-3,-3.998143E-1,1.6859589E0,-5.414498E-1,1.94896E-1,-3.2501927E-1,1.7935865E0,9.200716E-1,-6.2027997E-1,1.7494502E0,-5.9429944E-1,1.7725378E-1,-6.283166E-2,1.7970423E-1,-5.7355404E-2,1.4605573E0,-6.357359E-2,-6.294604E-1,1.566676E0,3.9297664E-1,1.7698482E0,-6.090857E-1,9.5258653E-1,-6.359242E-2,1.6205024E0,-6.3053745E-1,1.5227941E0,1.804489E-1,-5.7197362E-2,-1.6586836E-1,1.9389626E-1,1.7827481E0,-2.7479944E-1,-6.1707497E-1,1.1699698E0,-5.8407415E-2,1.7309843E0,1.6675189E0,-6.1199095E-2,-6.3151664E-1,-2.4638133E-1,1.6427027E-1,1.5829103E-2,-5.9770416E-2,1.7542939E-1,1.7894772E0,-5.403433E-2,-5.7584155E-2,1.1553627E-1,-6.175929E-1,5.806293E-2,-5.0135773E-2,1.6685513E-1,1.795102E-1,6.185154E-2,4.4303286E-1,1.7116482E0,-6.322427E-2,-1.4397733E-1,1.3446845E0,-6.254018E-2,1.7916819E0,-4.0287968E-2,-6.2532835E-2,-5.462746E-1,1.7815453E-1,-4.256084E-2,1.7320324E-1,-5.6133177E-2,1.6859518E-1,-6.2125724E-2,1.6728507E-1,-3.9628398E-2,1.8025146E-1,1.5475255E-1,1.770309E-1,-6.1773267E-2],"categories":[],"categories_nodes":[],"categories_segments":[],"categories_sizes":[],"default_left":[0,0,0,0,0,0,0,0,0,0,0,0,0,0,0,0,0,0,0,0,0,0,0,0,0,0,0,0,0,0,0,0,0,0,0,0,0,0,0,0,0,0,0,0,0,0,0,0,0,0,0,0,0,0,0,0,0,0,0,0,0,0,0,0,0,0,0,0,0,0,0,0,0,0,0,0,0],"id":10,"left_children":[1,3,5,7,9,11,13,15,17,19,21,-1,-1,-1,-1,23,-1,25,27,29,31,33,35,-1,37,39,41,-1,-1,43,-1,45,47,49,51,-1,53,55,-1,57,59,-1,-1,-1,-1,61,-1,-1,-1,63,-1,-1,-1,-1,-1,65,67,-1,69,71,-1,73,-1,-1,75,-1,-1,-1,-1,-1,-1,-1,-1,-1,-1,-1,-1],"loss_changes":[2.5026672E4,2.5015645E3,1.5448047E3,2.763961E3,7.0099814E3,2.3223883E2,5.6429688E1,1.0334514E3,4.5790918E2,5.2539062E1,8.7267944E1,0E0,0E0,0E0,0E0,3.067124E2,0E0,5.35E1,4.9563828E1,2.6057709E1,5.0476074E1,5.4089478E1,4.440049E1,0E0,8.995337E1,8.365234E0,1.6427116E0,0E0,0E0,1.9954632E1,0E0,3.040918E1,6.153865E0,2.6776123E0,1.5112076E1,0E0,6.251526E-1,4.4094727E1,0E0,7.90625E0,3.656155E1,0E0,0E0,0E0,0E0,9.800293E0,0E0,0E0,0E0,1.7203369E0,0E0,0E0,0E0,0E0,0E0,3.589853E1,3.8077637E1,0E0,3.1522104E1,7.3550224E0,0E0,2.1733398E0,0E0,0E0,6.2943512E1,0E0,0E0,0E0,0E0,0E0,0E0,0E0,0E0,0E0,0E0,0E0,0E0],"parents":[2147483647,0,0,1,1,2,2,3,3,4,4,5,5,6,6,7,7,8,8,9,9,10,10,15,15,17,17,18,18,19,19,20,20,21,21,22,22,24,24,25,25,26,26,29,29,31,31,32,32,33,33,34,34,36,36,37,37,39,39,40,40,45,45,49,49,55,55,56,56,58,58,59,59,61,61,64,64],"right_children":[2,4,6,8,10,12,14,16,18,20,22,-1,-1,-1,-1,24,-1,26,28,30,32,34,36,-1,38,40,42,-1,-1,44,-1,46,48,50,52,-1,54,56,-1,58,60,-1,-1,-1,-1,62,-1,-1,-1,64,-1,-1,-1,-1,-1,66,68,-1,70,72,-1,74,-1,-1,76,-1,-1,-1,-1,-1,-1,-1,-1,-1,-1,-1,-1],"split_conditions":[1.7424209E0,-1.579553E-1,-1.579553E-1,-7.4879724E-1,-1.5761244E-1,-3.3415043E-1,-3.440915E-1,-3.440915E-1,6.359286E0,-5.745279E-1,1.6148707E0,1.7725378E-1,-6.283166E-2,1.7970423E-1,-5.7355404E-2,2.7477357E-3,-6.357359E-2,2.1977764E1,-6.984384E-1,-3.3850152E-2,1.2670231E0,5.1946115E-1,4.410177E0,-6.359242E-2,2.6210179E-3,3.606499E0,-3.382656E-2,1.804489E-1,-5.7197362E-2,-7.897618E-3,1.9389626E-1,-3.440915E-1,6.3545786E-2,1.95167E0,8.9695126E-1,-5.8407415E-2,1.2030935E0,-6.6440284E-1,-6.1199095E-2,4.9851456E0,-3.440915E-1,1.6427027E-1,1.5829103E-2,-5.9770416E-2,1.7542939E-1,3.1886457E-3,-5.403433E-2,-5.7584155E-2,1.1553627E-1,6.067235E-1,5.806293E-2,-5.0135773E-2,1.6685513E-1,1.795102E-1,6.185154E-2,-6.6607064E-1,1.8066524E0,-6.322427E-2,-3.440915E-1,1.4176136E0,-6.254018E-2,-5.4000847E-2,-4.0287968E-2,-6.2532835E-2,-5.85719E-1,1.7815453E-1,-4.256084E-2,1.7320324E-1,-5.6133177E-2,1.6859518E-1,-6.2125724E-2,1.6728507E-1,-3.9628398E-2,1.8025146E-1,1.5475255E-1,1.770309E-1,-6.1773267E-2],"split_indices":[49,43,43,40,43,23,0,0,47,15,27,0,0,0,0,28,0,32,8,12,7,11,43,0,29,37,12,0,0,2,0,0,8,50,7,0,23,42,0,5,0,0,0,0,0,29,0,0,0,6,0,0,0,0,0,42,42,0,0,39,0,17,0,0,33,0,0,0,0,0,0,0,0,0,0,0,0],"split_type":[0,0,0,0,0,0,0,0,0,0,0,0,0,0,0,0,0,0,0,0,0,0,0,0,0,0,0,0,0,0,0,0,0,0,0,0,0,0,0,0,0,0,0,0,0,0,0,0,0,0,0,0,0,0,0,0,0,0,0,0,0,0,0,0,0,0,0,0,0,0,0,0,0,0,0,0,0],"sum_hessian":[3.6829965E4,2.9696229E4,7.133736E3,2.3984258E4,5.7119707E3,3.622995E2,6.7714365E3,1.2268903E3,2.2757367E4,1.9229448E3,3.789026E3,4.5156933E1,3.1714255E2,6.7618057E3,9.630515E0,9.106074E2,3.1628275E2,2.2662945E4,9.442239E1,2.8788305E1,1.8941565E3,3.7537512E3,3.5274773E1,6.4336754E1,8.462707E2,2.2652314E4,1.062933E1,8.5114136E1,9.308254E0,2.1800531E1,6.9877744E0,1.8824083E3,1.1748112E1,3.7376196E3,1.6131472E1,1.1944463E1,2.333031E1,8.290636E2,1.7207088E1,2.2594082E4,5.8233543E1,9.583296E0,1.0460347E0,1.836014E1,3.4403906E0,1.8772004E3,5.207898E0,1.0198696E1,1.549416E0,3.7364883E3,1.1313596E0,3.7052596E0,1.2426211E1,2.1478754E1,1.8515576E0,2.9223343E1,7.998403E2,2.256019E4,3.3892487E1,1.0713257E1,4.7520287E1,1.8754972E3,1.7032397E0,3.36386E3,3.7262836E2,1.1087446E1,1.8135897E1,7.9296686E2,6.873397E0,6.4872885E0,2.7405197E1,9.047049E0,1.6662089E0,1.789709E3,8.578822E1,1.043887E1,3.6218948E2],"tree_param":{"num_deleted":"0","num_feature":"52","num_nodes":"77","size_leaf_vector":"1"}},{"base_weights":[4.9466337E-3,-2.3169142E-1,1.7916665E0,-3.770534E-1,1.1686672E0,1.7931838E0,-2.4078457E-1,-4.4420862E-1,9.015312E-1,5.090669E-1,1.5623072E0,1.1032847E0,1.7939107E-1,1.6211329E-2,-4.309343E-2,-4.6680236E-1,1.768691E0,1.79505E-1,-5.714201E-1,1.5582815E0,-7.417804E-3,1.7625669E0,9.385961E-1,1.5238254E-1,-7.346526E-3,-4.87764E-1,1.302484E0,1.7916118E-1,-2.3846647E-1,1.6860272E-1,-6.27549E-1,-1.4045504E-1,1.7603068E0,8.512457E-1,-4.231466E-1,1.7774539E-1,1.5187395E0,1.7824249E-1,6.311345E-1,-4.9944553E-1,1.5467281E0,1.724712E0,1.9442351E-1,-4.2408835E-2,1.4672838E-2,-6.3116744E-2,4.3172937E-2,-6.1354466E-2,1.6351378E-1,1.79097E-1,-5.112322E-2,-6.2161382E-2,1.3383591E0,-5.9832776E-1,1.8112898E-1,-5.3353757E-2,1.6538182E-1,-4.31253E-1,1.470462E0,-5.2250063E-1,4.7065932E-1,1.7793553E-1,-4.775705E-1,-3.8317674E-1,1.8910518E0,1.9106917E0,-4.8742276E-1,1.5921825E0,-5.9891976E-2,1.1530214E-1,-6.0639806E-2,-5.193224E-1,1.9320887E-1,1.5912672E0,-4.2672715E-1,-5.5140246E-2,1.0117214E-2,1.5380768E-1,-3.5487883E-2,-5.924073E-2,6.4737655E-2,-5.9656125E-2,1.1071073E-1,2.152899E-1,1.78562E-1,1.9841456E-1,1.294559E-2,5.0081637E-2,-5.7514735E-2,-4.4124186E-2,1.7661548E-1,-5.519567E-2,1.4102392E-1,9.947898E-2,1.625475E-1,5.931554E-2,-5.815938E-2],"categories":[],"categories_nodes":[],"categories_segments":[],"categories_sizes":[],"default_left":[0,0,0,0,0,0,0,0,0,0,0,0,0,0,0,0,0,0,0,0,0,0,0,0,0,0,0,0,0,0,0,0,0,0,0,0,0,0,0,0,0,0,0,0,0,0,0,0,0,0,0,0,0,0,0,0,0,0,0,0,0,0,0,0,0,0,0,0,0,0,0,0,0,0,0,0,0,0,0,0,0,0,0,0,0,0,0,0,0,0,0,0,0,0,0,0,0],"id":11,"left_children":[1,3,5,7,9,11,13,15,17,19,21,23,-1,-1,-1,25,27,-1,29,31,33,35,37,-1,-1,39,41,-1,43,-1,45,47,49,51,53,-1,55,-1,57,59,61,63,65,-1,-1,-1,-1,-1,-1,-1,-1,-1,67,69,-1,-1,-1,71,73,75,77,-1,79,81,83,85,87,89,-1,-1,-1,91,-1,93,95,-1,-1,-1,-1,-1,-1,-1,-1,-1,-1,-1,-1,-1,-1,-1,-1,-1,-1,-1,-1,-1,-1],"loss_changes":[1.5570341E4,6.620032E3,1.3712891E1,2.530105E3,7.9330566E2,1.796875E-1,3.8354072E-1,1.4003774E3,1.9364169E3,6.2024084E2,2.37521E2,3.63873E0,0E0,0E0,0E0,1.0283291E3,1.3452454E1,0E0,7.150729E1,1.2982104E2,2.7450674E2,2.5576172E0,1.20174255E2,0E0,0E0,6.516382E2,1.5158893E2,0E0,3.538878E-1,0E0,2.3547058E0,3.5490494E1,2.4423462E1,1.8081155E2,2.0389178E2,0E0,2.5890274E1,0E0,3.075747E2,6.092886E2,7.459021E1,8.312244E1,1.0709865E2,0E0,0E0,0E0,0E0,0E0,0E0,0E0,0E0,0E0,9.3806854E1,7.500473E0,0E0,0E0,0E0,3.278545E1,4.480417E1,4.7951416E2,5.580427E2,0E0,2.5704606E0,6.3908377E0,2.173584E0,3.144722E0,5.98594E0,5.9938293E1,0E0,0E0,0E0,1.0097897E1,0E0,2.0804443E0,2.2899082E0,0E0,0E0,0E0,0E0,0E0,0E0,0E0,0E0,0E0,0E0,0E0,0E0,0E0,0E0,0E0,0E0,0E0,0E0,0E0,0E0,0E0,0E0],"parents":[2147483647,0,0,1,1,2,2,3,3,4,4,5,5,6,6,7,7,8,8,9,9,10,10,11,11,15,15,16,16,18,18,19,19,20,20,21,21,22,22,25,25,26,26,28,28,30,30,31,31,32,32,33,33,34,34,36,36,38,38,39,39,40,40,41,41,42,42,52,52,53,53,57,57,58,58,59,59,60,60,62,62,63,63,64,64,65,65,66,66,67,67,71,71,73,73,74,74],"right_children":[2,4,6,8,10,12,14,16,18,20,22,24,-1,-1,-1,26,28,-1,30,32,34,36,38,-1,-1,40,42,-1,44,-1,46,48,50,52,54,-1,56,-1,58,60,62,64,66,-1,-1,-1,-1,-1,-1,-1,-1,-1,68,70,-1,-1,-1,72,74,76,78,-1,80,82,84,86,88,90,-1,-1,-1,92,-1,94,96,-1,-1,-1,-1,-1,-1,-1,-1,-1,-1,-1,-1,-1,-1,-1,-1,-1,-1,-1,-1,-1,-1],"split_conditions":[5.347117E-1,-1.5521249E-1,8.886796E-1,2.3757482E0,-3.343902E-1,-5.81553E-2,-1.20043755E-1,1.8066524E0,1.0023859E0,3.0528523E-3,-2.4240524E-2,-4.0182093E-1,1.7939107E-1,1.6211329E-2,-4.309343E-2,1.0300851E0,3.0995568E-3,1.79505E-1,-7.048351E-1,-6.071723E-1,4.410177E0,-2.11537E-1,-6.6546416E-1,1.5238254E-1,-7.346526E-3,1.8236315E-2,-1.579553E-1,1.7916118E-1,-6.071954E-1,1.6860272E-1,-5.397073E-2,-1.4502434E-1,1.2707171E0,-3.4906048E-1,-8.958609E-2,1.7774539E-1,-6.6323658E-3,1.7824249E-1,-6.6440284E-1,-5.371815E-2,-1.558982E-1,-2.1942358E-1,-8.39219E-2,-4.2408835E-2,1.4672838E-2,-6.3116744E-2,4.3172937E-2,-6.1354466E-2,1.6351378E-1,1.79097E-1,-5.112322E-2,-6.2161382E-2,2.6026238E-2,-5.9681183E-1,1.8112898E-1,-5.3353757E-2,1.6538182E-1,2.6443452E-3,1.6495211E-2,-1.1653999E-1,-5.133259E-1,1.7793553E-1,-4.798974E-1,-3.440915E-1,1.0919694E0,1.0072934E-3,9.7682667E-1,-6.071957E-1,-5.9891976E-2,1.1530214E-1,-6.0639806E-2,3.9705503E0,1.9320887E-1,-6.6379637E-1,-1.7376462E-2,-5.5140246E-2,1.0117214E-2,1.5380768E-1,-3.5487883E-2,-5.924073E-2,6.4737655E-2,-5.9656125E-2,1.1071073E-1,2.152899E-1,1.78562E-1,1.9841456E-1,1.294559E-2,5.0081637E-2,-5.7514735E-2,-4.4124186E-2,1.7661548E-1,-5.519567E-2,1.4102392E-1,9.947898E-2,1.625475E-1,5.931554E-2,-5.815938E-2],"split_indices":[9,43,12,0,0,3,34,42,38,45,12,8,0,0,0,7,45,0,35,1,43,32,42,0,0,2,43,0,1,0,17,13,50,0,22,0,5,0,42,17,43,13,27,0,0,0,0,0,0,0,0,0,44,18,0,0,0,29,44,47,21,0,34,0,4,44,42,1,0,0,0,0,0,42,12,0,0,0,0,0,0,0,0,0,0,0,0,0,0,0,0,0,0,0,0,0,0],"split_type":[0,0,0,0,0,0,0,0,0,0,0,0,0,0,0,0,0,0,0,0,0,0,0,0,0,0,0,0,0,0,0,0,0,0,0,0,0,0,0,0,0,0,0,0,0,0,0,0,0,0,0,0,0,0,0,0,0,0,0,0,0,0,0,0,0,0,0,0,0,0,0,0,0,0,0,0,0,0,0,0,0,0,0,0,0,0,0,0,0,0,0,0,0,0,0,0,0],"sum_hessian":[3.6824234E4,3.2518293E4,4.305941E3,2.9460883E4,3.0574092E3,4.3028467E3,3.0944629E0,2.7991344E4,1.4695394E3,1.1435388E3,1.9138702E3,6.126666E0,4.2967197E3,1.0394574E0,2.0550056E0,2.7709223E4,2.8212253E2,9.145427E2,5.549967E2,3.765592E2,7.669797E2,1.4473368E3,4.6653348E2,4.2963243E0,1.8303416E0,2.7385496E4,3.2372568E2,2.790434E2,3.0791557E0,1.2760095E1,5.4223663E2,4.0055553E1,3.3650363E2,2.4986029E2,5.171194E2,1.358127E3,8.920987E1,1.23310486E2,3.43223E2,2.7229904E4,1.5559239E2,2.3400227E2,8.97234E1,2.0097194E0,1.0694364E0,5.4079346E2,1.4431825E0,3.2145226E1,7.91033E0,3.322305E2,4.27315E0,6.2029324E1,1.8783096E2,4.8020337E2,3.6916004E1,5.3269277E0,8.3882935E1,1.5169705E2,1.9152592E2,2.6598242E4,6.31661E2,1.396636E2,1.59287815E1,1.7019863E1,2.169824E2,2.4998272E1,6.472512E1,1.6622958E2,2.160137E1,1.5518961E0,4.786515E2,1.469994E2,4.69764E0,1.80212E2,1.1313924E1,2.5420346E4,1.177898E3,2.750977E2,3.5656332E2,1.4882897E1,1.0458844E0,1.5412712E1,1.6071512E0,5.671269E1,1.6026971E2,2.3898827E1,1.0994451E0,4.893189E0,5.9831936E1,1.29800205E1,1.5324957E2,1.4525665E2,1.7427511E0,1.140605E1,1.6880595E2,1.1184185E0,1.0195506E1],"tree_param":{"num_deleted":"0","num_feature":"52","num_nodes":"97","size_leaf_vector":"1"}},{"base_weights":[4.109182E-3,1.4288617E0,-6.1299855E-1,-6.300298E-2,1.7538774E0,-4.047856E-1,-6.3074523E-1,1.795982E-1,-6.4012334E-2,-5.721124E-1,6.992001E-1,-6.309909E-2,-5.1078284E-1,-6.071671E-1,9.801591E-1,-6.296496E-2,1.6694207E0,5.7903004E-1,-6.1927553E-2,-6.104613E-1,-5.5884693E-2,-5.8728218E-2,1.7498119E-1,1.7954294E-1,2.1412428E-1,-4.2892102E-2,1.3253768E-1,-6.127081E-1,2.3563121E-1,1.325404E-1,-5.6259513E-2,-5.6781013E-2,1.5145667E-1,-2.7007905E-1,-6.1433922E-2,-4.6569906E-2,1.16735004E-1,-4.5137167E-2,6.301313E-2],"categories":[],"categories_nodes":[],"categories_segments":[],"categories_sizes":[],"default_left":[0,0,0,0,0,0,0,0,0,0,0,0,0,0,0,0,0,0,0,0,0,0,0,0,0,0,0,0,0,0,0,0,0,0,0,0,0,0,0],"id":12,"left_children":[1,3,5,-1,7,9,11,-1,-1,13,15,-1,17,19,21,-1,23,25,-1,27,29,-1,-1,-1,31,-1,-1,33,35,-1,-1,-1,-1,37,-1,-1,-1,-1,-1],"loss_changes":[3.2384402E4,7.4502773E3,9.4711914E1,0E0,9.702754E2,3.7379126E2,3.7597656E-1,0E0,0E0,9.6137695E1,3.4463177E2,0E0,6.7008142E0,3.085144E0,4.8267876E1,0E0,2.7911835E1,4.610703E0,0E0,3.3900146E0,8.657312E0,0E0,0E0,0E0,1.4517809E1,0E0,0E0,7.8601074E-1,3.9703844E0,0E0,0E0,0E0,0E0,1.892624E0,0E0,0E0,0E0,0E0,0E0],"parents":[2147483647,0,0,1,1,2,2,4,4,5,5,6,6,9,9,10,10,12,12,13,13,14,14,16,16,17,17,19,19,20,20,24,24,27,27,28,28,33,33],"right_children":[2,4,6,-1,8,10,12,-1,-1,14,16,-1,18,20,22,-1,24,26,-1,28,30,-1,-1,-1,32,-1,-1,34,36,-1,-1,-1,-1,38,-1,-1,-1,-1,-1],"split_conditions":[-6.071948E-1,1.0023859E0,-2.2399387E-1,-6.300298E-2,-7.897618E-3,-2.1995908E-1,1.9678225E-1,1.795982E-1,-6.4012334E-2,1.6148707E0,1.0023859E0,-6.309909E-2,-5.1847454E-2,-2.4764732E-1,-2.5661194E-1,-6.296496E-2,-3.3415043E-1,-2.391248E-1,-6.1927553E-2,-2.2071578E-1,-4.488844E-3,-5.8728218E-2,1.7498119E-1,1.7954294E-1,-2.2662054E-1,-4.2892102E-2,1.3253768E-1,-3.4937596E-1,-6.984384E-1,1.325404E-1,-5.6259513E-2,-5.6781013E-2,1.5145667E-1,9.4414556E-1,-6.1433922E-2,-4.6569906E-2,1.16735004E-1,-4.5137167E-2,6.301313E-2],"split_indices":[1,38,6,0,2,31,12,0,0,27,38,0,3,7,9,0,23,7,0,31,2,0,0,0,24,0,0,0,8,0,0,0,0,48,0,0,0,0,0],"split_type":[0,0,0,0,0,0,0,0,0,0,0,0,0,0,0,0,0,0,0,0,0,0,0,0,0,0,0,0,0,0,0,0,0,0,0,0,0,0,0],"sum_hessian":[3.6830863E4,1.1130927E4,2.5699936E4,1.5174335E3,9.613494E3,2.0203204E3,2.3679615E4,9.447584E3,1.6590967E2,1.7548296E3,2.6549088E2,2.3626975E4,5.264017E1,1.716671E3,3.8158493E1,1.12186775E2,1.5330411E2,4.373287E0,4.8266884E1,1.7063673E3,1.0303751E1,1.2644404E1,2.551409E1,1.4087274E2,1.2431361E1,2.0415087E0,2.3317785E0,1.7021232E3,4.244149E0,2.3317404E0,7.97201E0,8.115199E0,4.3161626E0,8.85408E0,1.693269E3,2.7068224E0,1.537327E0,7.7848825E0,1.0691979E0],"tree_param":{"num_deleted":"0","num_feature":"52","num_nodes":"39","size_leaf_vector":"1"}},{"base_weights":[-7.335918E-2,-4.604507E-1,1.7206905E0,-4.8187178E-1,1.5953173E-1,1.9245609E0,-5.0058853E-2,-3.644541E-2,-5.0431925E-1,-4.636562E-1,2.1993103E0,2.002065E0,-5.1652055E-2,-3.7322807E-1,7.298646E-1,-5.0571257E-1,-3.3834425E-1,-5.0096124E-2,5.320057E-1,3.58294E0,-4.5278236E-2,3.7032995E0,1.9269762E0,-4.870075E-1,-7.382174E-2,2.311886E0,-4.88003E-2,-5.060661E-2,-3.0507818E-1,-4.8738804E-2,9.21762E-1,1.23800114E-1,-2.9315991E-2,-3.579785E-2,4.266033E-1,3.8673043E-1,1.9818937E-2,-3.774772E-1,1.9821767E0,-5.0035685E-2,-2.164169E-1,1.8281597E0,-4.869197E-2,3.464657E0,2.7353942E-1,-4.2845964E-2,2.3415575E-2,1.7435858E-1,-2.718296E-2,-5.1089942E-2,5.383093E-2,2.001915E0,-4.178605E-2,2.4405217E-2,-3.8602725E-2,5.250813E-1,-3.8750168E-2,1.07343905E-1,3.6209354E-1,-4.0687393E-2,1.0523391E0,6.423758E-1,1.959084E0,2.0290788E-1,-3.4434516E-2,1.9386119E-1,4.738503E-1],"categories":[],"categories_nodes":[],"categories_segments":[],"categories_sizes":[],"default_left":[0,0,0,0,0,0,0,0,0,0,0,0,0,0,0,0,0,0,0,0,0,0,0,0,0,0,0,0,0,0,0,0,0,0,0,0,0,0,0,0,0,0,0,0,0,0,0,0,0,0,0,0,0,0,0,0,0,0,0,0,0,0,0,0,0,0,0],"id":13,"left_children":[1,3,5,7,9,11,-1,13,15,17,19,21,-1,23,25,27,29,-1,31,33,-1,35,37,39,41,43,-1,-1,45,-1,47,-1,-1,-1,-1,-1,-1,49,51,-1,53,55,-1,57,59,-1,-1,-1,-1,-1,-1,61,-1,-1,-1,-1,-1,-1,-1,-1,63,-1,65,-1,-1,-1,-1],"loss_changes":[2.591724E3,4.0842224E1,3.0090283E2,2.965033E1,1.3228613E2,1.15848145E2,0E0,3.729131E1,4.821167E-1,3.2351665E0,9.093872E1,6.8026855E1,0E0,3.3811731E0,8.615621E1,4.4128418E-2,5.4331617E0,0E0,2.3269877E0,4.488852E1,0E0,1.29079895E1,7.269702E1,1.5362549E-1,2.3518946E1,4.4567352E1,0E0,0E0,5.954539E-1,0E0,3.5664463E0,0E0,0E0,0E0,0E0,0E0,0E0,1.9943571E0,2.7011475E1,0E0,4.9807584E-1,4.2601906E1,0E0,7.0480347E-1,4.71144E0,0E0,0E0,0E0,0E0,0E0,0E0,9.12395E1,0E0,0E0,0E0,0E0,0E0,0E0,0E0,0E0,6.2208023E0,0E0,2.1789062E1,0E0,0E0,0E0,0E0],"parents":[2147483647,0,0,1,1,2,2,3,3,4,4,5,5,7,7,8,8,9,9,10,10,11,11,13,13,14,14,15,15,16,16,18,18,19,19,21,21,22,22,23,23,24,24,25,25,28,28,30,30,37,37,38,38,40,40,41,41,43,43,44,44,51,51,60,60,62,62],"right_children":[2,4,6,8,10,12,-1,14,16,18,20,22,-1,24,26,28,30,-1,32,34,-1,36,38,40,42,44,-1,-1,46,-1,48,-1,-1,-1,-1,-1,-1,50,52,-1,54,56,-1,58,60,-1,-1,-1,-1,-1,-1,62,-1,-1,-1,-1,-1,-1,-1,-1,64,-1,66,-1,-1,-1,-1],"split_conditions":[-1.8072527E-2,-8.378567E-2,-3.440915E-1,-7.07292E-1,7.7367544E-1,-8.958609E-2,-5.0058853E-2,-2.639542E-2,3.3876568E-1,6.9822073E-1,-4.3436056E-1,1.3209574E-1,-5.1652055E-2,-5.847256E-1,-3.440915E-1,-8.380216E-2,-4.1021697E-2,-5.0096124E-2,-3.69764E-1,-1.579553E-1,-4.5278236E-2,-5.3322065E-1,-4.8330575E-1,-1.883208E-1,-2.9020038E-1,-6.6379637E-1,-4.88003E-2,-5.060661E-2,4.3292534E-1,-4.8738804E-2,3.771117E-1,1.23800114E-1,-2.9315991E-2,-3.579785E-2,4.266033E-1,3.8673043E-1,1.9818937E-2,-9.0818994E-2,-4.523069E-1,-5.0035685E-2,-1.2703402E-1,-3.440915E-1,-4.869197E-2,-4.5705056E-1,-3.4906048E-1,-4.2845964E-2,2.3415575E-2,1.7435858E-1,-2.718296E-2,-5.1089942E-2,5.383093E-2,-5.400484E-2,-4.178605E-2,2.4405217E-2,-3.8602725E-2,5.250813E-1,-3.8750168E-2,1.07343905E-1,3.6209354E-1,-4.0687393E-2,-7.897618E-3,6.423758E-1,-4.4333518E-1,2.0290788E-1,-3.4434516E-2,1.9386119E-1,4.738503E-1],"split_indices":[43,27,0,33,7,22,0,31,3,7,16,43,0,42,0,27,11,0,51,43,0,15,20,31,42,42,0,0,6,0,23,0,0,0,0,0,0,22,1,0,13,0,0,14,0,0,0,0,0,0,0,17,0,0,0,0,0,0,0,0,2,0,18,0,0,0,0],"split_type":[0,0,0,0,0,0,0,0,0,0,0,0,0,0,0,0,0,0,0,0,0,0,0,0,0,0,0,0,0,0,0,0,0,0,0,0,0,0,0,0,0,0,0,0,0,0,0,0,0,0,0,0,0,0,0,0,0,0,0,0,0,0,0,0,0,0,0],"sum_hessian":[3.7298506E3,3.068518E3,6.613327E2,2.9662534E3,1.02264626E2,6.0586005E2,5.5472622E1,1.4243968E2,2.8238137E3,7.892451E1,2.334012E1,5.873903E2,1.8469755E1,9.93081E1,4.3131584E1,2.7982769E3,2.5536804E1,7.65531E1,2.371404E0,1.510741E1,8.232711E0,2.2787668E1,5.6460266E2,7.150748E1,2.7800617E1,1.8370205E1,2.4761377E1,2.791835E3,6.442004E0,2.3384169E1,2.1526341E0,1.0083628E0,1.3630412E0,2.302087E0,1.2805323E1,2.1670374E1,1.1172944E0,1.3071426E1,5.515312E2,6.733637E1,4.171106E0,4.3494473E0,2.345117E1,1.1287123E1,7.0830827E0,5.409656E0,1.0323482E0,1.0019631E0,1.1506709E0,1.1795101E1,1.2763258E0,5.4719684E2,4.3343816E0,1.0046686E0,3.1664371E0,1.1708733E0,3.1785738E0,1.1751336E0,1.0111989E1,4.0352077E0,3.0478747E0,3.8202207E0,5.433766E2,1.5271288E0,1.520746E0,5.410886E2,2.287977E0],"tree_param":{"num_deleted":"0","num_feature":"52","num_nodes":"67","size_leaf_vector":"1"}},{"base_weights":[-8.584193E-2,-4.3320745E-1,8.994525E-1,9.238204E-1,-5.0633747E-2,1.5352741E0,2.5455964E-1,-4.9773406E-2,1.6706458E0,1.4307808E0,3.2632287E0,1.3141015E0,-5.0464075E-2,-4.3399137E-2,1.7425439E0,3.9280555E-1,1.4049958E0,2.713158E-1,4.1118675E-1,-5.1766455E-2,1.4867259E0,1.611149E-1,3.1527398E0,-4.605398E-2,1.4454393E-1,1.5911803E0,-4.7697794E-2,4.1367275E-1,-2.9119318E-2,-4.5010533E-2,1.6977713E0,1.5967774E0,5.755251E-1,1.6225699E-1,-3.5055324E-2],"categories":[],"categories_nodes":[],"categories_segments":[],"categories_sizes":[],"default_left":[0,0,0,0,0,0,0,0,0,0,0,0,0,0,0,0,0,0,0,0,0,0,0,0,0,0,0,0,0,0,0,0,0,0,0],"id":14,"left_children":[1,3,5,7,-1,9,11,-1,13,15,17,19,-1,-1,21,-1,23,-1,-1,-1,25,-1,27,-1,-1,29,-1,-1,-1,-1,31,33,-1,-1,-1],"loss_changes":[1.1457102E3,2.4606519E2,3.573977E2,1.3555615E2,0E0,7.462915E1,3.5009393E2,0E0,1.3379852E1,2.1263E1,1.7007446E-1,5.8195618E1,0E0,0E0,9.904587E0,0E0,3.1842957E1,0E0,0E0,0E0,3.4854797E1,0E0,2.1020405E1,0E0,0E0,3.5155518E1,0E0,0E0,0E0,0E0,5.245215E1,8.010162E0,0E0,0E0,0E0],"parents":[2147483647,0,0,1,1,2,2,3,3,5,5,6,6,8,8,9,9,10,10,11,11,14,14,16,16,20,20,22,22,25,25,30,30,31,31],"right_children":[2,4,6,8,-1,10,12,-1,14,16,18,20,-1,-1,22,-1,24,-1,-1,-1,26,-1,28,-1,-1,30,-1,-1,-1,-1,32,34,-1,-1,-1],"split_conditions":[2.8625762E-1,2.6699454E-3,2.877562E-1,-2.1048146E-1,-5.0633747E-2,-2.5668417E-3,2.6699454E-3,-4.9773406E-2,-7.374464E-1,1.0023859E0,-2.3935253E-2,-7.374464E-1,-5.0464075E-2,-4.3399137E-2,-6.6440284E-1,3.9280555E-1,2.6987751E-3,2.713158E-1,4.1118675E-1,-5.1766455E-2,-1.5401253E-1,1.611149E-1,7.837648E-3,-4.605398E-2,1.4454393E-1,-1.5435538E-1,-4.7697794E-2,4.1367275E-1,-2.9119318E-2,-4.5010533E-2,-6.0580105E-1,3.9705503E0,5.755251E-1,1.6225699E-1,-3.5055324E-2],"split_indices":[0,28,0,0,0,44,28,0,40,38,3,40,0,0,42,0,29,0,0,0,43,0,0,0,0,43,0,0,0,0,42,0,0,0,0],"split_type":[0,0,0,0,0,0,0,0,0,0,0,0,0,0,0,0,0,0,0,0,0,0,0,0,0,0,0,0,0,0,0,0,0,0,0],"sum_hessian":[3.3453728E3,2.4737964E3,8.715765E2,1.2590079E2,2.3478955E3,4.381797E2,4.333968E2,4.347716E1,8.242362E1,4.1491675E2,2.3262945E1,1.806084E2,2.527884E2,2.5563638E0,7.986726E1,2.6937099E0,4.1222302E2,1.666081E1,6.6021347E0,1.5382427E1,1.6522597E2,7.501979E1,4.8474674E0,8.526695E0,4.0369635E2,1.5706119E2,8.164776E0,3.6137862E0,1.2336811E0,7.634422E0,1.4942677E2,1.4715744E2,2.2693264E0,1.4539842E2,1.7590237E0],"tree_param":{"num_deleted":"0","num_feature":"52","num_nodes":"35","size_leaf_vector":"1"}},{"base_weights":[-7.8186095E-3,2.4378033E0,-5.3196292E-2,2.4930165E0,-5.205342E-2,2.5058918E0,-4.8385404E-2,2.5144377E0,-4.617872E-2,-9.9721245E-2,2.519833E0,-4.2613868E-2,7.265172E-2,2.5220985E0,-3.3289663E-2,2.523814E-1,-3.1015752E-2,2.1495543E-2,-2.6923884E-2],"categories":[],"categories_nodes":[],"categories_segments":[],"categories_sizes":[],"default_left":[0,0,0,0,0,0,0,0,0,0,0,0,0,0,0,0,0,0,0],"id":15,"left_children":[1,3,-1,5,-1,7,-1,9,-1,11,13,-1,-1,15,17,-1,-1,-1,-1],"loss_changes":[1.7382855E4,3.9222852E2,0E0,9.1271484E1,0E0,6.0501953E1,0E0,3.3160156E1,0E0,1.8650804E0,1.3549805E1,0E0,0E0,1.20859375E1,2.3658912E-1,0E0,0E0,0E0,0E0],"parents":[2147483647,0,0,1,1,3,3,5,5,7,7,9,9,10,10,13,13,14,14],"right_children":[2,4,-1,6,-1,8,-1,10,-1,12,14,-1,-1,16,18,-1,-1,-1,-1],"split_conditions":[-3.4906048E-1,-2.5661194E-1,-5.3196292E-2,2.8462637E-2,-5.205342E-2,-1.4646983E-1,-4.8385404E-2,3.0684203E-3,-4.617872E-2,-5.402543E-2,-8.369546E-2,-4.2613868E-2,7.265172E-2,1.8066524E0,-6.9136876E-1,2.523814E-1,-3.1015752E-2,2.1495543E-2,-2.6923884E-2],"split_indices":[0,9,0,2,0,43,0,45,0,17,27,0,0,42,8,0,0,0,0],"split_type":[0,0,0,0,0,0,0,0,0,0,0,0,0,0,0,0,0,0,0],"sum_hessian":[1.355865E4,2.392369E3,1.1166282E4,2.3486912E3,4.36777E1,2.3387341E3,9.95702E0,2.332171E3,6.563191E0,4.7674866E0,2.3274033E3,3.7645066E0,1.00298E0,2.3253523E3,2.0511343E0,2.3240535E3,1.2988245E0,1.0428814E0,1.0082531E0],"tree_param":{"num_deleted":"0","num_feature":"52","num_nodes":"19","size_leaf_vector":"1"}},{"base_weights":[4.1922224E-3,6.260014E-1,-6.1994057E-2,1.2448854E0,-6.210176E-2,-4.5293507E-1,1.5188612E0,-5.9443593E-1,1.5206455E-1,-5.656826E-1,1.5239166E0,-6.041812E-1,-3.4881142E-1,-6.013412E-2,1.4176542E-2,1.5248685E-1,-5.1944118E-2,-5.8037764E-1,-6.1938126E-2,2.1108977E-2,-6.070835E-2,-6.0596526E-1,4.7578245E-1,-2.0418473E-1,1.0406793E0,-6.20803E-2,-4.980454E-2,1.0729309E-1,-5.294625E-2,1.153276E-2,-5.7017416E-2,1.409088E-2,1.2491888E-1],"categories":[],"categories_nodes":[],"categories_segments":[],"categories_sizes":[],"default_left":[0,0,0,0,0,0,0,0,0,0,0,0,0,0,0,0,0,0,0,0,0,0,0,0,0,0,0,0,0,0,0,0,0],"id":16,"left_children":[1,3,-1,5,-1,7,9,11,-1,13,15,17,19,-1,-1,-1,-1,21,-1,23,-1,25,27,29,31,-1,-1,-1,-1,-1,-1,-1,-1],"loss_changes":[1.4104024E4,1.4050579E4,0E0,5.6603125E3,0E0,4.7323395E2,1.11271484E2,3.5687256E0,0E0,7.43063E-1,2.111914E1,1.8945312E-1,5.9954376E0,0E0,0E0,0E0,0E0,1.669722E1,0E0,6.3481417E0,0E0,6.408081E-1,9.525753E0,2.721781E0,7.616911E-1,0E0,0E0,0E0,0E0,0E0,0E0,0E0,0E0],"parents":[2147483647,0,0,1,1,3,3,5,5,6,6,7,7,9,9,10,10,11,11,12,12,17,17,19,19,21,21,22,22,23,23,24,24],"right_children":[2,4,-1,6,-1,8,10,12,-1,14,16,18,20,-1,-1,-1,-1,22,-1,24,-1,26,28,30,32,-1,-1,-1,-1,-1,-1,-1,-1],"split_conditions":[3.0528523E-3,-2.5072244E-1,-6.1994057E-2,-5.81553E-2,-6.210176E-2,3.46974E-1,-6.6402376E-1,-5.3818237E-2,1.5206455E-1,-9.9436596E-2,-8.863233E-2,-3.440915E-1,2.6210179E-3,-6.013412E-2,1.4176542E-2,1.5248685E-1,-5.1944118E-2,-1.337886E-1,-6.1938126E-2,-5.973226E-2,-6.070835E-2,-5.3739354E-2,-1.579553E-1,-3.440915E-1,-5.4026965E-2,-6.20803E-2,-4.980454E-2,1.0729309E-1,-5.294625E-2,1.153276E-2,-5.7017416E-2,1.409088E-2,1.2491888E-1],"split_indices":[45,4,0,3,0,10,42,14,0,15,22,0,29,0,0,0,0,31,0,3,0,17,43,0,17,0,0,0,0,0,0,0,0],"split_type":[0,0,0,0,0,0,0,0,0,0,0,0,0,0,0,0,0,0,0,0,0,0,0,0,0,0,0,0,0,0,0,0,0],"sum_hessian":[3.6340008E4,1.8203889E4,1.813612E4,1.2166011E4,6.0378774E3,1.6903429E3,1.0475668E4,1.5779095E3,1.1243341E2,2.507627E1,1.0450591E4,1.5162905E3,6.161896E1,2.4015755E1,1.0605164E0,1.0445979E4,4.6124125E0,6.061831E2,9.101075E2,2.5711262E1,3.59077E1,5.922606E2,1.3922484E1,2.1713074E1,3.9981875E0,5.1649615E2,7.5764465E1,8.691887E0,5.230598E0,1.1958273E1,9.754801E0,1.0674903E0,2.9306972E0],"tree_param":{"num_deleted":"0","num_feature":"52","num_nodes":"33","size_leaf_vector":"1"}},{"base_weights":[4.228317E-3,-3.8649964E-1,1.4372345E0,-5.283262E-1,1.816627E-1,-3.0809814E-1,1.5186489E0,8.1307393E-1,-6.0848665E-1,1.4838817E0,-5.8266246E-1,1.5079986E-1,-6.150157E-2,1.5212838E-1,-5.607111E-2,1.2571753E0,-6.268163E-2,-6.179026E-1,1.3603148E0,3.625207E-1,1.499532E0,-5.9779E-1,8.495561E-1,-6.262881E-2,1.3837907E0,-6.190086E-1,1.3264984E0,1.5471505E-1,-5.598228E-2,-1.5764017E-1,1.6282159E-1,1.5093869E0,-2.632016E-1,-6.059646E-1,1.0300387E0,1.4768394E0,-5.7180632E-2,1.4217596E0,-6.087798E-2,-6.200055E-1,-2.4455228E-1,1.4213161E-1,1.5294005E-2,-5.8742642E-2,1.5093903E-1,1.5148059E0,-5.39814E-2,-5.6527134E-2,1.0523713E-1,-6.0650074E-1,5.441579E-2,-4.8968237E-2,1.4336E-1,1.523677E-1,4.056874E-2,4.1968727E-1,1.4551332E0,-6.207512E-2,-1.3951953E-1,1.2027903E0,-6.1935104E-2,1.5165622E0,-3.9980497E-2,-6.1458003E-2,-5.3257895E-1,1.3490699E-1,-6.2125433E-2,1.4707315E-1,-5.4601472E-2,1.4564198E-1,-6.10991E-2,1.4726472E-1,-3.84124E-2,1.5196313E-1,9.9488266E-2,1.4926785E-1,-6.057669E-2],"categories":[],"categories_nodes":[],"categories_segments":[],"categories_sizes":[],"default_left":[0,0,0,0,0,0,0,0,0,0,0,0,0,0,0,0,0,0,0,0,0,0,0,0,0,0,0,0,0,0,0,0,0,0,0,0,0,0,0,0,0,0,0,0,0,0,0,0,0,0,0,0,0,0,0,0,0,0,0,0,0,0,0,0,0,0,0,0,0,0,0,0,0,0,0,0,0],"id":17,"left_children":[1,3,5,7,9,11,13,15,17,19,21,-1,-1,-1,-1,23,-1,25,27,29,31,33,35,-1,37,39,41,-1,-1,43,-1,45,47,49,51,53,-1,55,-1,57,59,-1,-1,-1,-1,61,-1,-1,-1,63,-1,-1,-1,-1,-1,65,67,-1,69,71,-1,73,-1,-1,75,-1,-1,-1,-1,-1,-1,-1,-1,-1,-1,-1,-1],"loss_changes":[2.034947E4,2.3012583E3,1.1068945E3,2.4578145E3,5.6794756E3,1.9482224E2,4.161328E1,8.251038E2,4.0061084E2,3.6493652E1,7.841626E1,0E0,0E0,0E0,0E0,2.3589648E2,0E0,4.6979492E1,3.7801804E1,2.0249784E1,3.654883E1,4.7981567E1,3.4722446E1,0E0,7.0755005E1,7.8554688E0,1.175806E0,0E0,0E0,1.6960163E1,0E0,2.3800293E1,5.531083E0,2.5142822E0,1.1835274E1,7.1847916E-1,0E0,2.9715454E1,0E0,7.580078E0,3.2536686E1,0E0,0E0,0E0,0E0,7.5478516E0,0E0,0E0,0E0,1.7871094E0,0E0,0E0,0E0,0E0,0E0,3.047327E1,2.8183716E1,0E0,2.6805672E1,5.8735943E0,0E0,1.7910156E0,0E0,0E0,5.3721672E1,0E0,0E0,0E0,0E0,0E0,0E0,0E0,0E0,0E0,0E0,0E0,0E0],"parents":[2147483647,0,0,1,1,2,2,3,3,4,4,5,5,6,6,7,7,8,8,9,9,10,10,15,15,17,17,18,18,19,19,20,20,21,21,22,22,24,24,25,25,26,26,29,29,31,31,32,32,33,33,34,34,35,35,37,37,39,39,40,40,45,45,49,49,55,55,56,56,58,58,59,59,61,61,64,64],"right_children":[2,4,6,8,10,12,14,16,18,20,22,-1,-1,-1,-1,24,-1,26,28,30,32,34,36,-1,38,40,42,-1,-1,44,-1,46,48,50,52,54,-1,56,-1,58,60,-1,-1,-1,-1,62,-1,-1,-1,64,-1,-1,-1,-1,-1,66,68,-1,70,72,-1,74,-1,-1,76,-1,-1,-1,-1,-1,-1,-1,-1,-1,-1,-1,-1],"split_conditions":[1.7424209E0,-1.579553E-1,-1.579553E-1,-7.4879724E-1,-1.5761244E-1,-3.3415043E-1,-3.440915E-1,-3.440915E-1,6.359286E0,-5.745279E-1,1.6148707E0,1.5079986E-1,-6.150157E-2,1.5212838E-1,-5.607111E-2,2.7477357E-3,-6.268163E-2,2.1977764E1,-6.984384E-1,-3.3850152E-2,1.2670231E0,5.1946115E-1,-3.440915E-1,-6.262881E-2,2.6210179E-3,3.606499E0,-3.382656E-2,1.5471505E-1,-5.598228E-2,-7.897618E-3,1.6282159E-1,-3.440915E-1,6.3545786E-2,1.95167E0,8.9695126E-1,-5.3979952E-2,-5.7180632E-2,-6.6440284E-1,-6.087798E-2,4.9851456E0,-3.440915E-1,1.4213161E-1,1.5294005E-2,-5.8742642E-2,1.5093903E-1,3.1886457E-3,-5.39814E-2,-5.6527134E-2,1.0523713E-1,6.067235E-1,5.441579E-2,-4.8968237E-2,1.4336E-1,1.523677E-1,4.056874E-2,-6.6546416E-1,1.8066524E0,-6.207512E-2,-3.440915E-1,1.4176136E0,-6.1935104E-2,1.0858952E0,-3.9980497E-2,-6.1458003E-2,-5.85719E-1,1.3490699E-1,-6.2125433E-2,1.4707315E-1,-5.4601472E-2,1.4564198E-1,-6.10991E-2,1.4726472E-1,-3.84124E-2,1.5196313E-1,9.9488266E-2,1.4926785E-1,-6.057669E-2],"split_indices":[49,43,43,40,43,23,0,0,47,15,27,0,0,0,0,28,0,32,8,12,7,11,0,0,29,37,12,0,0,2,0,0,8,50,7,17,0,42,0,5,0,0,0,0,0,29,0,0,0,6,0,0,0,0,0,42,42,0,0,39,0,7,0,0,33,0,0,0,0,0,0,0,0,0,0,0,0],"split_type":[0,0,0,0,0,0,0,0,0,0,0,0,0,0,0,0,0,0,0,0,0,0,0,0,0,0,0,0,0,0,0,0,0,0,0,0,0,0,0,0,0,0,0,0,0,0,0,0,0,0,0,0,0,0,0,0,0,0,0,0,0,0,0,0,0,0,0,0,0,0,0,0,0,0,0,0,0],"sum_hessian":[3.634183E4,2.8556307E4,7.785522E3,2.2851988E4,5.704319E3,3.4686078E2,7.438661E3,1.2880868E3,2.1563902E4,2.1094321E3,3.5948865E3,4.9578835E1,2.9728195E2,7.429515E3,9.145737E0,9.845512E2,3.035355E2,2.1461945E4,1.0195653E2,2.9367819E1,2.0800645E3,3.5578896E3,3.6996964E1,6.176858E1,9.2278265E2,2.1450424E4,1.1520281E1,9.309257E1,8.863956E0,2.1434404E1,7.9334135E0,2.0686428E3,1.1421424E1,3.5407366E3,1.7153036E1,2.564163E1,1.1355334E1,9.058087E2,1.6973911E1,2.1392818E4,5.7606365E1,1.0463745E1,1.0565355E0,1.7555855E1,3.87855E0,2.063447E3,5.195822E0,9.752474E0,1.6689501E0,3.539559E3,1.1773894E0,3.5544333E0,1.3598603E1,2.416262E1,1.4790092E0,2.9632769E1,8.7617596E2,2.1359375E4,3.344237E1,1.1394727E1,4.621164E1,2.0617637E3,1.6834164E0,3.1842249E3,3.553344E2,1.5498897E1,1.4133873E1,8.696623E2,6.5136924E0,7.1500916E0,2.629228E1,9.800196E0,1.5945312E0,2.0478033E3,1.3960292E1,1.1716627E1,3.4361777E2],"tree_param":{"num_deleted":"0","num_feature":"52","num_nodes":"77","size_leaf_vector":"1"}},{"base_weights":[5.7647726E-3,-2.2007221E-1,1.5149537E0,-3.6221522E-1,1.0248548E0,1.5161279E-1,-2.3320301E-1,-4.287795E-1,8.040686E-1,4.646068E-1,1.33836E0,1.544341E-2,-4.213717E-2,-4.985992E-1,2.230726E-1,1.5178403E-1,-5.5820745E-1,1.3364542E0,-7.79095E-3,1.4926548E0,8.3427995E-1,-5.291787E-1,5.351021E-1,1.5208257E0,-4.939093E-1,1.4435965E-1,-6.155511E-1,-1.309769E-1,1.4917706E0,7.5800776E-1,-4.117807E-1,1.5041582E-1,1.3019788E0,1.5101409E-1,5.712567E-1,-5.370365E-1,1.4498732E0,1.3373108E0,-2.0241673E-1,-5.723409E-1,1.726054E0,-5.5723304E-1,1.6840141E0,-6.193098E-2,4.0653594E-2,-6.011886E-2,1.4103954E-1,1.5154819E-1,-5.0057627E-2,-6.1018836E-2,1.1581908E0,-5.8923924E-1,1.5323536E-1,-5.2024703E-2,1.4070591E0,-4.1806576E-1,1.2607331E0,1.6466866E0,-5.422935E-1,1.5077221E-1,-2.2484441E-1,5.4038805E-1,1.4680681E0,-5.0579166E-1,1.74925E-1,-6.3009284E-2,1.1262782E-1,1.7465147E0,9.839471E-2,1.4310465E0,-6.0954326E-1,1.8260704E-1,-4.4180144E-2,1.3590198E0,-5.886818E-2,1.046859E-1,-5.975916E-2,1.2030225E0,1.5163197E-1,-5.0773764E-1,1.631133E-1,1.355087E0,-4.1289765E-1,1.9699977E-1,6.443807E-2,-5.4590117E-2,2.0272927E-1,-4.1178327E-2,1.4881511E-2,-3.2146227E-2,1.5157418E-1,1.5166758E-1,-8.236765E-3,-5.550774E-2,1.3432813E-1,1.838344E-1,1.5285403E-1,-5.570075E-2,1.3601084E-1,-4.423849E-2,1.5517008E-1,1.5753025E-1,-6.1692335E-2,-4.283784E-2,1.4934371E-1,3.429959E-2,1.4078812E-1,1.2857075E-1,-5.4144192E-2,1.2476981E-1,1.5233584E-1,5.474181E-2,-5.6950267E-2],"categories":[],"categories_nodes":[],"categories_segments":[],"categories_sizes":[],"default_left":[0,0,0,0,0,0,0,0,0,0,0,0,0,0,0,0,0,0,0,0,0,0,0,0,0,0,0,0,0,0,0,0,0,0,0,0,0,0,0,0,0,0,0,0,0,0,0,0,0,0,0,0,0,0,0,0,0,0,0,0,0,0,0,0,0,0,0,0,0,0,0,0,0,0,0,0,0,0,0,0,0,0,0,0,0,0,0,0,0,0,0,0,0,0,0,0,0,0,0,0,0,0,0,0,0,0,0,0,0,0,0,0,0],"id":18,"left_children":[1,3,5,7,9,-1,11,13,15,17,19,-1,-1,21,23,-1,25,27,29,31,33,35,37,39,41,-1,43,45,47,49,51,-1,53,-1,55,57,59,61,63,65,67,69,71,-1,-1,-1,-1,-1,-1,-1,73,75,-1,-1,77,79,81,83,85,-1,87,89,91,93,-1,-1,-1,95,97,99,101,-1,-1,103,-1,-1,-1,105,-1,107,-1,109,111,-1,-1,-1,-1,-1,-1,-1,-1,-1,-1,-1,-1,-1,-1,-1,-1,-1,-1,-1,-1,-1,-1,-1,-1,-1,-1,-1,-1,-1,-1],"loss_changes":[1.239568E4,5.59845E3,1.0071289E1,2.2046519E3,5.688296E2,0E0,3.600655E-1,1.2226396E3,1.4918596E3,4.7975195E2,1.6040015E2,0E0,0E0,7.672407E2,2.4194712E3,0E0,6.1490753E1,9.34928E1,2.3434523E2,1.5290527E0,8.612518E1,3.6726172E2,4.130238E2,3.984829E2,2.3196634E2,0E0,2.22612E0,2.9910515E1,1.8249756E1,1.4394104E2,1.7197955E2,0E0,1.9478745E1,0E0,2.4189992E2,2.7036963E2,9.394516E0,3.404138E1,2.1660715E2,8.888573E0,2.7900879E1,1.7025629E2,1.5174667E1,0E0,0E0,0E0,0E0,0E0,0E0,0E0,7.192801E1,6.8448334E0,0E0,0E0,2.4546814E-1,2.7671152E1,3.3528717E1,1.707933E1,2.1820068E2,0E0,3.400661E-1,4.1426353E1,2.172345E1,2.9552933E1,0E0,0E0,0E0,1.3851807E1,1.0287556E1,1.0190659E1,2.6569763E1,0E0,0E0,4.440097E1,0E0,0E0,0E0,6.073967E0,0E0,9.202095E0,0E0,1.6748962E0,2.1026988E0,0E0,0E0,0E0,0E0,0E0,0E0,0E0,0E0,0E0,0E0,0E0,0E0,0E0,0E0,0E0,0E0,0E0,0E0,0E0,0E0,0E0,0E0,0E0,0E0,0E0,0E0,0E0,0E0,0E0,0E0],"parents":[2147483647,0,0,1,1,2,2,3,3,4,4,6,6,7,7,8,8,9,9,10,10,13,13,14,14,16,16,17,17,18,18,19,19,20,20,21,21,22,22,23,23,24,24,26,26,27,27,28,28,29,29,30,30,32,32,34,34,35,35,36,36,37,37,38,38,39,39,40,40,41,41,42,42,50,50,51,51,54,54,55,55,56,56,57,57,58,58,60,60,61,61,62,62,63,63,67,67,68,68,69,69,70,70,73,73,77,77,79,79,81,81,82,82],"right_children":[2,4,6,8,10,-1,12,14,16,18,20,-1,-1,22,24,-1,26,28,30,32,34,36,38,40,42,-1,44,46,48,50,52,-1,54,-1,56,58,60,62,64,66,68,70,72,-1,-1,-1,-1,-1,-1,-1,74,76,-1,-1,78,80,82,84,86,-1,88,90,92,94,-1,-1,-1,96,98,100,102,-1,-1,104,-1,-1,-1,106,-1,108,-1,110,112,-1,-1,-1,-1,-1,-1,-1,-1,-1,-1,-1,-1,-1,-1,-1,-1,-1,-1,-1,-1,-1,-1,-1,-1,-1,-1,-1,-1,-1,-1],"split_conditions":[5.347117E-1,-1.5521249E-1,8.886796E-1,2.3757482E0,-3.343902E-1,1.5161279E-1,-6.0719687E-1,6.026999E-3,1.0023859E0,3.0528523E-3,-2.4240524E-2,1.544341E-2,-4.213717E-2,-5.371815E-2,-1.579553E-1,1.5178403E-1,-7.048351E-1,-6.071723E-1,4.410177E0,-2.11537E-1,-6.6546416E-1,1.8066524E0,-5.164783E-1,-2.1942358E-1,-3.440915E-1,1.4435965E-1,-5.397073E-2,-1.4502434E-1,1.2707171E0,-3.4906048E-1,-8.958609E-2,1.5041582E-1,-6.6323658E-3,1.5101409E-1,-6.6440284E-1,2.6699454E-3,3.0995568E-3,-6.6546416E-1,-3.440915E-1,-3.440915E-1,6.4192476E0,-4.5252374E-1,-3.1183264E-1,-6.193098E-2,4.0653594E-2,-6.011886E-2,1.4103954E-1,1.5154819E-1,-5.0057627E-2,-6.1018836E-2,2.6026238E-2,-5.9681183E-1,1.5323536E-1,-5.2024703E-2,-6.071942E-1,2.6443452E-3,1.6495211E-2,-1.593267E-1,2.1986717E-3,1.5077221E-1,-6.071954E-1,-3.440915E-1,-1.6236669E-1,1.8066524E0,1.74925E-1,-6.3009284E-2,1.1262782E-1,1.0919694E0,-3.440915E-1,-6.0719293E-1,2.8877582E-3,1.8260704E-1,-4.4180144E-2,-6.071957E-1,-5.886818E-2,1.046859E-1,-5.975916E-2,7.837648E-3,1.5163197E-1,-1.5435538E-1,1.631133E-1,-2.9020038E-1,-1.7376462E-2,1.9699977E-1,6.443807E-2,-5.4590117E-2,2.0272927E-1,-4.1178327E-2,1.4881511E-2,-3.2146227E-2,1.5157418E-1,1.5166758E-1,-8.236765E-3,-5.550774E-2,1.3432813E-1,1.838344E-1,1.5285403E-1,-5.570075E-2,1.3601084E-1,-4.423849E-2,1.5517008E-1,1.5753025E-1,-6.1692335E-2,-4.283784E-2,1.4934371E-1,3.429959E-2,1.4078812E-1,1.2857075E-1,-5.4144192E-2,1.2476981E-1,1.5233584E-1,5.474181E-2,-5.6950267E-2],"split_indices":[9,43,12,0,0,0,1,3,38,45,12,0,0,17,43,0,35,1,43,32,42,42,16,13,0,0,17,13,50,0,22,0,5,0,42,28,45,42,0,0,5,14,0,0,0,0,0,0,0,0,44,18,0,0,1,29,44,43,44,0,1,0,30,42,0,0,0,4,0,1,28,0,0,1,0,0,0,0,0,43,0,42,12,0,0,0,0,0,0,0,0,0,0,0,0,0,0,0,0,0,0,0,0,0,0,0,0,0,0,0,0,0,0],"split_type":[0,0,0,0,0,0,0,0,0,0,0,0,0,0,0,0,0,0,0,0,0,0,0,0,0,0,0,0,0,0,0,0,0,0,0,0,0,0,0,0,0,0,0,0,0,0,0,0,0,0,0,0,0,0,0,0,0,0,0,0,0,0,0,0,0,0,0,0,0,0,0,0,0,0,0,0,0,0,0,0,0,0,0,0,0,0,0,0,0,0,0,0,0,0,0,0,0,0,0,0,0,0,0,0,0,0,0,0,0,0,0,0,0],"sum_hessian":[3.636705E4,3.163413E4,4.7329185E3,2.8392992E4,3.2411394E3,4.729874E3,3.044237E0,2.6860588E4,1.5324048E3,1.1638208E3,2.0773186E3,1.0534188E0,1.9908183E0,2.4262113E4,2.5984734E3,1.00546954E3,5.269352E2,4.0834985E2,7.55471E2,1.5889825E3,4.8833606E2,2.3565477E4,6.966376E2,9.243174E2,1.674156E3,1.4001017E1,5.1293414E2,3.9099E1,3.6925085E2,2.606014E2,4.948696E2,1.4920781E3,9.690442E1,1.3547638E2,3.5285968E2,2.3473006E4,9.247084E1,3.3329504E2,3.6334253E2,8.237441E1,8.4194293E2,1.6275778E3,4.6578144E1,5.1144742E2,1.4867414E0,3.0426916E1,8.672084E0,3.6514456E2,4.106295E0,5.8855183E1,2.0174623E2,4.5411533E2,4.075426E1,5.0679946E0,9.1836426E1,1.4507983E2,2.0777985E2,5.5622025E1,2.3417383E4,8.9479706E1,2.9911327E0,4.7701714E1,2.8559335E2,3.1510257E2,4.8239975E1,8.02742E1,2.1002169E0,8.314184E2,1.0524514E1,4.104705E1,1.5865308E3,4.379273E1,2.7854168E0,1.8114316E2,2.0603065E1,1.6749704E0,4.5244037E2,3.6216038E1,5.5620384E1,1.3971806E2,5.361762E0,1.9687122E2,1.0908636E1,4.1326103E1,1.429592E1,2.3385338E4,3.2045307E1,1.9256952E0,1.0654376E0,2.5680292E1,2.2021421E1,2.76933E2,8.660327E0,3.0760342E2,7.4991326E0,5.797465E2,2.5167192E2,7.294097E0,3.230417E0,2.3222535E0,3.8724796E1,4.62581E0,1.5819049E3,1.2516715E1,1.6862645E2,7.4815793E0,2.8734459E1,1.89207E0,1.3782599E2,1.2531271E2,7.15585E1,1.1796129E0,9.729024E0],"tree_param":{"num_deleted":"0","num_feature":"52","num_nodes":"113","size_leaf_vector":"1"}},{"base_weights":[4.01316E-3,1.2327102E0,-6.010202E-1,-6.1992597E-2,1.4863137E0,-3.9221993E-1,-6.1909294E-1,1.5201394E-1,-6.3881196E-2,-5.626367E-1,6.1852294E-1,-6.1934657E-2,-4.9615738E-1,-5.985563E-1,8.690052E-1,-6.1874937E-2,1.4104819E0,5.3327024E-1,-6.070453E-2,-6.019998E-1,4.7684323E-2,-5.760621E-2,1.4898494E-1,1.5252003E-1,2.6490754E-1,-4.189353E-2,1.18334435E-1,-2.5895783E-1,-6.0368855E-2,1.1833779E-1,-5.3310346E-2,-5.674357E-2,1.3210517E-1,-4.3995804E-1,5.9278872E-2,4.2332583E-3,-5.398896E-2],"categories":[],"categories_nodes":[],"categories_segments":[],"categories_sizes":[],"default_left":[0,0,0,0,0,0,0,0,0,0,0,0,0,0,0,0,0,0,0,0,0,0,0,0,0,0,0,0,0,0,0,0,0,0,0,0,0],"id":19,"left_children":[1,3,5,-1,7,9,11,-1,-1,13,15,-1,17,19,21,-1,23,25,-1,27,29,-1,-1,-1,31,-1,-1,33,-1,-1,-1,-1,-1,35,-1,-1,-1],"loss_changes":[2.7015668E4,5.634451E3,9.164453E1,0E0,7.5913477E2,3.3493182E2,3.9160156E-1,0E0,0E0,8.602417E1,2.759541E2,0E0,6.163334E0,3.6395874E0,3.773538E1,0E0,2.213089E1,3.9046054E0,0E0,7.786865E-1,6.9148374E0,0E0,0E0,0E0,1.5534506E1,0E0,0E0,1.7497544E0,0E0,0E0,0E0,0E0,0E0,4.3441987E-1,0E0,0E0,0E0],"parents":[2147483647,0,0,1,1,2,2,4,4,5,5,6,6,9,9,10,10,12,12,13,13,14,14,16,16,17,17,19,19,20,20,24,24,27,27,33,33],"right_children":[2,4,6,-1,8,10,12,-1,-1,14,16,-1,18,20,22,-1,24,26,-1,28,30,-1,-1,-1,32,-1,-1,34,-1,-1,-1,-1,-1,36,-1,-1,-1],"split_conditions":[-6.071948E-1,1.0023859E0,-2.2399387E-1,-6.1992597E-2,-7.897618E-3,-2.2071578E-1,1.9678225E-1,1.5201394E-1,-6.3881196E-2,1.6148707E0,1.0023859E0,-6.1934657E-2,-5.1847454E-2,-2.4764732E-1,-2.5661194E-1,-6.1874937E-2,-3.3415043E-1,-2.391248E-1,-6.070453E-2,-3.4937596E-1,-4.488844E-3,-5.760621E-2,1.4898494E-1,1.5252003E-1,-8.369546E-2,-4.189353E-2,1.18334435E-1,9.4414556E-1,-6.0368855E-2,1.1833779E-1,-5.3310346E-2,-5.674357E-2,1.3210517E-1,-4.8047656E-1,5.9278872E-2,4.2332583E-3,-5.398896E-2],"split_indices":[1,38,6,0,2,31,12,0,0,27,38,0,3,7,9,0,23,7,0,0,2,0,0,0,27,0,0,48,0,0,0,0,0,15,0,0,0],"split_type":[0,0,0,0,0,0,0,0,0,0,0,0,0,0,0,0,0,0,0,0,0,0,0,0,0,0,0,0,0,0,0,0,0,0,0,0,0],"sum_hessian":[3.6338555E4,1.1989446E4,2.4349111E4,1.4434246E3,1.0546021E4,1.9414591E3,2.240765E4,1.0381069E4,1.6495181E2,1.6617263E3,2.7973282E2,2.2357494E4,5.015689E1,1.6216221E3,4.0104225E1,1.0925818E2,1.7047462E2,4.5070076E0,4.5649883E1,1.6130951E3,8.526992E0,1.2073729E1,2.8030495E1,1.5465593E2,1.5818705E1,1.9728315E0,2.534176E0,8.658092E0,1.604437E3,2.5341277E0,5.992864E0,9.105457E0,6.7132473E0,7.5393977E0,1.1186942E0,1.3929777E0,6.14642E0],"tree_param":{"num_deleted":"0","num_feature":"52","num_nodes":"37","size_leaf_vector":"1"}},{"base_weights":[-7.37926E-2,-4.5785856E-1,1.448189E0,-4.8016953E-1,1.4728412E-1,1.5984447E0,-4.9944E-2,-3.564135E-2,-5.0365144E-1,-5.0017603E-2,1.6422952E0,1.6548563E0,-5.1305987E-2,-3.6718658E-1,6.50749E-1,-5.051303E-1,-3.3016148E-1,2.556983E0,-4.590302E-2,-4.484337E-2,1.678659E0,-4.8557067E-1,-6.368621E-2,1.8248304E0,-4.8648402E-2,-5.055054E-2,-2.974933E-1,-4.857683E-2,8.64567E-1,-3.8408782E-2,3.04751E0,2.684443E-1,1.6263739E0,-4.9957886E-2,-2.1004497E-1,1.5843552E0,-4.8534643E-2,-4.0813953E-2,2.3299077E0,-4.2517364E-2,2.4435405E-2,-2.8571589E-2,1.7452125E-1,1.6875243E-2,3.230115E0,-4.981142E-2,1.6528472E0,2.358658E-2,-3.8196675E-2,-1.941152E-1,4.6900305E-1,-3.6380265E-2,2.6246145E0,5.2776766E-1,2.7230434E0,3.1914554E0,1.6275933E0,-3.7100166E-2,1.9397547E-2,2.6997325E-1,7.050445E-2,6.1812878E-2,2.8450683E-1,3.752562E-1,-2.809422E-2,4.1751787E-1,1.6128689E-1],"categories":[],"categories_nodes":[],"categories_segments":[],"categories_sizes":[],"default_left":[0,0,0,0,0,0,0,0,0,0,0,0,0,0,0,0,0,0,0,0,0,0,0,0,0,0,0,0,0,0,0,0,0,0,0,0,0,0,0,0,0,0,0,0,0,0,0,0,0,0,0,0,0,0,0,0,0,0,0,0,0,0,0,0,0,0,0],"id":20,"left_children":[1,3,5,7,9,11,-1,13,15,-1,17,19,-1,21,23,25,27,29,-1,-1,31,33,35,37,-1,-1,39,-1,41,-1,43,-1,45,-1,47,49,-1,-1,51,-1,-1,-1,-1,-1,53,-1,55,-1,-1,57,-1,-1,59,-1,61,63,65,-1,-1,-1,-1,-1,-1,-1,-1,-1,-1],"loss_changes":[2.1254382E3,3.9268738E1,2.152102E2,2.921228E1,1.0148895E2,8.189844E1,0E0,3.245747E1,5.15625E-1,0E0,6.2030678E1,3.3943726E1,0E0,3.4220524E0,6.293834E1,5.480957E-2,5.135893E0,3.3215393E1,0E0,0E0,3.0119019E1,1.6132545E-1,2.030887E1,2.6977005E1,0E0,0E0,6.0078466E-1,0E0,3.8242E0,0E0,9.521042E0,0E0,3.602478E1,0E0,4.7823927E-1,3.3846573E1,0E0,0E0,1.6013184E1,0E0,0E0,0E0,0E0,0E0,4.2671204E0,0E0,1.8834839E1,0E0,0E0,3.9817968E-1,0E0,0E0,5.795593E-1,0E0,2.4677048E0,1.8484093E1,1.616565E1,0E0,0E0,0E0,0E0,0E0,0E0,0E0,0E0,0E0,0E0],"parents":[2147483647,0,0,1,1,2,2,3,3,4,4,5,5,7,7,8,8,10,10,11,11,13,13,14,14,15,15,16,16,17,17,20,20,21,21,22,22,23,23,26,26,28,28,30,30,32,32,34,34,35,35,38,38,44,44,46,46,49,49,52,52,54,54,55,55,56,56],"right_children":[2,4,6,8,10,12,-1,14,16,-1,18,20,-1,22,24,26,28,30,-1,-1,32,34,36,38,-1,-1,40,-1,42,-1,44,-1,46,-1,48,50,-1,-1,52,-1,-1,-1,-1,-1,54,-1,56,-1,-1,58,-1,-1,60,-1,62,64,66,-1,-1,-1,-1,-1,-1,-1,-1,-1,-1],"split_conditions":[-1.8072527E-2,-8.378567E-2,-3.440915E-1,-7.07292E-1,6.9822073E-1,-8.958609E-2,-4.9944E-2,-2.639542E-2,3.3876568E-1,-5.0017603E-2,-4.3436056E-1,3.0528523E-3,-5.1305987E-2,-5.847256E-1,-3.440915E-1,-8.380216E-2,-4.1021697E-2,2.8465139E-3,-4.590302E-2,-4.484337E-2,1.3209574E-1,-1.883208E-1,-2.9020038E-1,-3.4906048E-1,-4.8648402E-2,-5.055054E-2,8.048312E-1,-4.857683E-2,-8.392207E-2,-3.8408782E-2,-4.4329813E-1,2.684443E-1,-9.088645E-2,-4.9957886E-2,-5.4010987E-2,-9.091295E-2,-4.8534643E-2,-4.0813953E-2,-5.402512E-2,-4.2517364E-2,2.4435405E-2,-2.8571589E-2,1.7452125E-1,1.6875243E-2,-4.465944E-1,-4.981142E-2,-5.400484E-2,2.358658E-2,-3.8196675E-2,-9.09446E-2,4.6900305E-1,-3.6380265E-2,-6.6265917E-1,5.2776766E-1,-9.086024E-2,-3.3415043E-1,-1.7723729E-1,-3.7100166E-2,1.9397547E-2,2.6997325E-1,7.050445E-2,6.1812878E-2,2.8450683E-1,3.752562E-1,-2.809422E-2,4.1751787E-1,1.6128689E-1],"split_indices":[43,27,0,33,7,22,0,31,3,0,16,45,0,42,0,27,11,29,0,0,43,31,42,0,0,0,7,0,27,0,16,0,22,0,17,22,0,0,17,0,0,0,0,0,1,0,17,0,0,22,0,0,42,0,22,23,30,0,0,0,0,0,0,0,0,0,0],"split_type":[0,0,0,0,0,0,0,0,0,0,0,0,0,0,0,0,0,0,0,0,0,0,0,0,0,0,0,0,0,0,0,0,0,0,0,0,0,0,0,0,0,0,0,0,0,0,0,0,0,0,0,0,0,0,0,0,0,0,0,0,0,0,0,0,0,0,0],"sum_hessian":[3.633944E3,2.9022676E3,7.316764E2,2.799268E3,1.02999664E2,6.794384E2,5.2238014E1,1.4057664E2,2.6586914E3,7.233725E1,3.0662413E1,6.619693E2,1.7469116E1,9.510392E1,4.547273E1,2.6343245E3,2.4366928E1,2.1212128E1,9.450286E0,7.207972E0,6.547613E2,6.798544E1,2.7118475E1,2.2076397E1,2.3396332E1,2.628142E3,6.1822577E0,2.2084013E1,2.2829149E0,3.063168E0,1.8148958E1,2.9867758E1,6.2489355E2,6.3922344E1,4.063102E0,4.9630756E0,2.21554E1,4.1077533E0,1.7968643E1,5.177551E0,1.0047069E0,1.2828461E0,1.0000688E0,1.1973255E0,1.6951633E1,7.471702E0,6.174219E2,1.0271256E0,3.035976E0,3.7519891E0,1.2110868E0,1.7488822E0,1.6219763E1,1.4973134E0,1.545432E1,7.945782E0,6.094761E2,2.6075408E0,1.1444482E0,1.5217824E1,1.0019379E0,1.1791815E0,1.4275138E1,6.7709737E0,1.1748086E0,1.8786293E0,6.075975E2],"tree_param":{"num_deleted":"0","num_feature":"52","num_nodes":"67","size_leaf_vector":"1"}},{"base_weights":[-8.598538E-2,-4.308487E-1,8.1061137E-1,8.292958E-1,-5.0591808E-2,1.3364714E0,2.3636892E-1,-4.966834E-2,1.4310457E0,1.2571743E0,2.4345301E-1,1.1480776E0,-5.041058E-2,-4.25191E-2,1.487489E0,1.2749461E0,-4.2315055E-2,-5.133599E-2,1.2861798E0,1.40577E0,2.7091641E0,2.9369283E-1,1.2538322E0,-4.5076653E-2,1.3712091E0,1.4438437E0,-3.2727856E-2,3.1556925E-1,9.658915E-2,-3.9840844E-2,1.2690376E-1,1.4397752E0,-4.6743773E-2,1.3889079E-1,2.8000036E-1,1.3734062E0,3.0380623E0,1.4143012E-1,-4.8110397E-3,3.669465E-1,1.0768538E-1],"categories":[],"categories_nodes":[],"categories_segments":[],"categories_sizes":[],"default_left":[0,0,0,0,0,0,0,0,0,0,0,0,0,0,0,0,0,0,0,0,0,0,0,0,0,0,0,0,0,0,0,0,0,0,0,0,0,0,0,0,0],"id":21,"left_children":[1,3,5,7,-1,9,11,-1,13,15,-1,17,-1,-1,19,21,-1,-1,23,25,27,-1,29,-1,31,33,-1,-1,-1,-1,-1,35,-1,-1,-1,37,39,-1,-1,-1,-1],"loss_changes":[1.00038794E3,2.2144476E2,2.7109058E2,1.05828094E2,0E0,3.777124E1,2.9143896E2,0E0,1.0153671E1,1.3661804E1,0E0,4.503543E1,0E0,0E0,5.018448E0,1.1584656E1,0E0,0E0,2.7031647E1,6.077942E0,4.2749023E-1,0E0,1.1342773E1,0E0,2.2198486E1,2.3177643E0,0E0,0E0,0E0,0E0,0E0,1.3314331E1,0E0,0E0,0E0,9.375275E0,3.1656914E0,0E0,0E0,0E0,0E0],"parents":[2147483647,0,0,1,1,2,2,3,3,5,5,6,6,8,8,9,9,11,11,14,14,15,15,18,18,19,19,20,20,22,22,24,24,25,25,31,31,35,35,36,36],"right_children":[2,4,6,8,-1,10,12,-1,14,16,-1,18,-1,-1,20,22,-1,-1,24,26,28,-1,30,-1,32,34,-1,-1,-1,-1,-1,36,-1,-1,-1,38,40,-1,-1,-1,-1],"split_conditions":[2.8625762E-1,2.6699454E-3,2.877562E-1,-2.1048146E-1,-5.0591808E-2,-2.5668417E-3,2.6699454E-3,-4.966834E-2,-7.374464E-1,3.0995568E-3,2.4345301E-1,-7.374464E-1,-5.041058E-2,-4.25191E-2,-6.06635E-1,1.0023859E0,-4.2315055E-2,-5.133599E-2,-6.6546416E-1,-6.5826213E-1,-5.847256E-1,2.9369283E-1,-3.3414808E-1,-4.5076653E-2,-1.5401253E-1,-6.6440284E-1,-3.2727856E-2,3.1556925E-1,9.658915E-2,-3.9840844E-2,1.2690376E-1,-6.0580105E-1,-4.6743773E-2,1.3889079E-1,2.8000036E-1,-6.6402376E-1,3.8799257E0,1.4143012E-1,-4.8110397E-3,3.669465E-1,1.0768538E-1],"split_indices":[0,28,0,0,0,44,28,0,40,45,0,40,0,0,42,38,0,0,42,42,42,0,23,0,43,42,0,0,0,0,0,42,0,0,0,42,0,0,0,0,0],"split_type":[0,0,0,0,0,0,0,0,0,0,0,0,0,0,0,0,0,0,0,0,0,0,0,0,0,0,0,0,0,0,0,0,0,0,0,0,0,0,0,0,0],"sum_hessian":[3.2332432E3,2.3354604E3,8.9778253E2,1.3074118E2,2.2047192E3,4.6794058E2,4.2984195E2,4.0865986E1,8.987519E1,4.3842438E2,2.951622E1,1.9239963E2,2.374423E2,2.459432E0,8.741576E1,4.3407468E2,4.3496847E0,1.45568E1,1.7784283E2,8.395089E1,3.4648685E0,3.712912E0,4.303618E2,8.098972E0,1.6974387E2,8.230948E1,1.6414055E0,2.1133385E0,1.3515301E0,3.6946661E0,4.266671E2,1.6385056E2,5.8933125E0,8.10504E1,1.2590799E0,1.5910307E2,4.747477E0,1.5465884E2,4.4442306E0,2.932386E0,1.8150914E0],"tree_param":{"num_deleted":"0","num_feature":"52","num_nodes":"41","size_leaf_vector":"1"}},{"base_weights":[-8.935492E-3,1.9236711E0,-5.2978642E-2,1.9598747E0,-5.1773783E-2,1.9682578E0,-4.7898483E-2,1.9738479E0,-4.5649566E-2,-9.432169E-2,1.9773954E0,7.073399E-2,-4.2174306E-2,1.9788853E0,-3.0568724E-3,1.9800253E-1,-3.033689E-2],"categories":[],"categories_nodes":[],"categories_segments":[],"categories_sizes":[],"default_left":[0,0,0,0,0,0,0,0,0,0,0,0,0,0,0,0,0],"id":22,"left_children":[1,3,-1,5,-1,7,-1,9,-1,11,13,-1,-1,15,-1,-1,-1],"loss_changes":[1.3406814E4,2.5093164E2,0E0,5.7910156E1,0E0,3.854297E1,0E0,2.0515625E1,0E0,1.7942456E0,8.3359375E0,0E0,0E0,7.7929688E0,0E0,0E0,0E0],"parents":[2147483647,0,0,1,1,3,3,5,5,7,7,9,9,10,10,13,13],"right_children":[2,4,-1,6,-1,8,-1,10,-1,12,14,-1,-1,16,-1,-1,-1],"split_conditions":[-3.4906048E-1,-2.5661194E-1,-5.2978642E-2,2.8462637E-2,-5.1773783E-2,-1.4646983E-1,-4.7898483E-2,3.0684203E-3,-4.5649566E-2,-6.071842E-1,-8.369546E-2,7.073399E-2,-4.2174306E-2,1.8066524E0,-3.0568724E-3,1.9800253E-1,-3.033689E-2],"split_indices":[0,9,0,2,0,43,0,45,0,1,27,0,0,42,0,0,0],"split_type":[0,0,0,0,0,0,0,0,0,0,0,0,0,0,0,0,0],"sum_hessian":[1.3316897E4,2.8265073E3,1.049039E4,2.7854E3,4.110741E1,2.7760508E3,9.34904E0,2.769851E3,6.1997147E0,4.6991906E0,2.7651519E3,1.0262282E0,3.6729624E0,2.7631162E3,2.0357342E0,2.761869E3,1.2472153E0],"tree_param":{"num_deleted":"0","num_feature":"52","num_nodes":"17","size_leaf_vector":"1"}},{"base_weights":[4.0506218E-3,5.7264143E-1,-6.094683E-2,1.1009946E0,-6.105542E-2,-5.8783895E-1,1.3060235E0,-5.925352E-1,1.137563E-1,-5.941436E-1,1.3269066E0,-5.9662706E-1,-1.5870388E-1,-6.0159493E-2,1.489721E-2,1.3296195E0,-5.8493078E-2,-5.738889E-1,-6.0988355E-2,-4.7356197E-1,6.90876E-1,1.330251E-1,-4.83705E-2,-5.9754723E-1,3.0713618E-1,-5.5728495E-2,1.0068881E-2,9.087752E-2,9.550075E-3,-6.0140092E-2,3.7078395E-2,8.181153E-2,-5.2099444E-2],"categories":[],"categories_nodes":[],"categories_segments":[],"categories_sizes":[],"default_left":[0,0,0,0,0,0,0,0,0,0,0,0,0,0,0,0,0,0,0,0,0,0,0,0,0,0,0,0,0,0,0,0,0],"id":23,"left_children":[1,3,-1,5,-1,7,9,11,-1,13,15,17,19,-1,-1,21,-1,23,-1,25,27,-1,-1,29,31,-1,-1,-1,-1,-1,-1,-1,-1],"loss_changes":[1.2414662E4,1.1547379E4,0E0,4.4221543E3,0E0,1.1880798E1,4.5263672E2,2.3550415E0,0E0,7.788582E-1,5.919922E1,6.1920166E-2,4.1407623E0,0E0,0E0,1.35234375E1,0E0,1.1028168E1,0E0,5.847287E-1,4.6607494E-1,0E0,0E0,2.1150055E0,6.4632044E0,0E0,0E0,0E0,0E0,0E0,0E0,0E0,0E0],"parents":[2147483647,0,0,1,1,3,3,5,5,6,6,7,7,9,9,10,10,11,11,12,12,15,15,17,17,19,19,20,20,23,23,24,24],"right_children":[2,4,-1,6,-1,8,10,12,-1,14,16,18,20,-1,-1,22,-1,24,-1,26,28,-1,-1,30,32,-1,-1,-1,-1,-1,-1,-1,-1],"split_conditions":[3.0528523E-3,-2.5072244E-1,-6.094683E-2,-5.973226E-2,-6.105542E-2,3.46974E-1,-6.6402376E-1,1.1289736E0,1.137563E-1,8.621072E-3,-3.440915E-1,-3.440915E-1,-3.992227E-1,-6.0159493E-2,1.489721E-2,-6.589397E-2,-5.8493078E-2,-1.337886E-1,-6.0988355E-2,-1.7723788E-1,-2.953336E-1,1.330251E-1,-4.83705E-2,2.527952E-1,-1.579553E-1,-5.5728495E-2,1.0068881E-2,9.087752E-2,9.550075E-3,-6.0140092E-2,3.7078395E-2,8.181153E-2,-5.2099444E-2],"split_indices":[45,4,0,3,0,10,42,17,0,48,0,0,49,0,0,22,0,31,0,30,1,0,0,17,43,0,0,0,0,0,0,0,0],"split_type":[0,0,0,0,0,0,0,0,0,0,0,0,0,0,0,0,0,0,0,0,0,0,0,0,0,0,0,0,0,0,0,0,0],"sum_hessian":[3.558629E4,1.8469438E4,1.7116852E4,1.2767991E4,5.701447E3,1.3820562E3,1.1385936E4,1.3789595E3,3.0967088E0,1.23474014E2,1.1262461E4,1.3657029E3,1.3256564E1,1.2243677E2,1.037252E0,1.1246806E4,1.5655383E1,5.1928546E2,8.464174E2,9.994975E0,3.2615895E0,1.1243157E4,3.648559E0,5.0601895E2,1.3266488E1,8.748963E0,1.2460117E0,2.002362E0,1.2592275E0,5.0439056E2,1.6283867E0,8.211724E0,5.0547633E0],"tree_param":{"num_deleted":"0","num_feature":"52","num_nodes":"33","size_leaf_vector":"1"}},{"base_weights":[4.112661E-3,-3.746127E-1,1.2594101E0,-5.1637954E-1,1.7014767E-1,-2.9674017E-1,1.3249334E0,7.2889024E-1,-5.9766394E-1,1.2950951E0,-5.7201564E-1,1.3181742E-1,-6.0457863E-2,1.3270552E-1,-5.485146E-2,1.1053846E0,-6.1830133E-2,-6.072671E-1,1.1935315E0,1.302884E0,-2.5265947E-1,-5.8744913E-1,7.713665E-1,-6.167857E-2,1.2095779E0,-6.083991E-1,1.1734835E0,1.3438012E-1,-5.4683853E-2,3.381655E-1,1.3156954E0,-5.5494864E-2,9.620796E-2,-5.957828E-1,9.2236984E-1,-5.6006707E-2,1.2968872E0,1.2417282E0,-6.059177E-2,-6.0941154E-1,-2.4392104E-1,1.2516685E-1,1.4656144E-2,-1.4906725E-1,1.4069724E-1,1.3202724E0,-5.371501E-2,-5.963382E-1,5.1064886E-2,-4.7786485E-2,1.2608698E-1,1.3350576E-1,5.2684348E-2,-5.672113E-2,1.2543579E0,-6.101784E-2,-1.3124874E-1,1.0648086E0,-6.1285496E-2,-5.7700224E-2,1.3242914E-1,1.3217896E0,-4.0294163E-2,-6.047504E-2,-5.1991993E-1,1.2651946E-1,-5.2222457E-2,1.2802014E-1,-5.9877064E-2,1.2988722E-1,-3.8316246E-2,1.3295925E-1,1.1461566E-1,1.2941034E-1,-5.946798E-2],"categories":[],"categories_nodes":[],"categories_segments":[],"categories_sizes":[],"default_left":[0,0,0,0,0,0,0,0,0,0,0,0,0,0,0,0,0,0,0,0,0,0,0,0,0,0,0,0,0,0,0,0,0,0,0,0,0,0,0,0,0,0,0,0,0,0,0,0,0,0,0,0,0,0,0,0,0,0,0,0,0,0,0,0,0,0,0,0,0,0,0,0,0,0,0],"id":24,"left_children":[1,3,5,7,9,11,13,15,17,19,21,-1,-1,-1,-1,23,-1,25,27,29,31,33,35,-1,37,39,41,-1,-1,43,45,-1,-1,47,49,-1,51,53,-1,55,57,-1,-1,59,-1,61,-1,63,-1,-1,-1,-1,-1,-1,65,-1,67,69,-1,-1,-1,71,-1,-1,73,-1,-1,-1,-1,-1,-1,-1,-1,-1,-1],"loss_changes":[1.6921393E4,2.1117954E3,8.415537E2,2.196663E3,4.7155073E3,1.6690826E2,3.2197266E1,6.752485E2,3.51083E2,2.739331E1,7.10105E1,0E0,0E0,0E0,0E0,1.8732947E2,0E0,4.1556152E1,2.9229477E1,2.716504E1,4.9692426E0,4.2889893E1,2.8074121E1,0E0,5.8002197E1,7.323242E0,8.774185E-1,0E0,0E0,1.6157095E1,1.9402588E1,0E0,0E0,2.3614502E0,9.543882E0,0E0,1.2921143E-1,2.2737793E1,0E0,7.3251953E0,2.8538893E1,0E0,0E0,1.4596493E1,0E0,6.2822266E0,0E0,1.8364258E0,0E0,0E0,0E0,0E0,0E0,0E0,1.9098999E1,0E0,2.294338E1,4.9260616E0,0E0,0E0,0E0,1.4875488E0,0E0,0E0,4.6733955E1,0E0,0E0,0E0,0E0,0E0,0E0,0E0,0E0,0E0,0E0],"parents":[2147483647,0,0,1,1,2,2,3,3,4,4,5,5,6,6,7,7,8,8,9,9,10,10,15,15,17,17,18,18,19,19,20,20,21,21,22,22,24,24,25,25,26,26,29,29,30,30,33,33,34,34,36,36,37,37,39,39,40,40,43,43,45,45,47,47,54,54,56,56,57,57,61,61,64,64],"right_children":[2,4,6,8,10,12,14,16,18,20,22,-1,-1,-1,-1,24,-1,26,28,30,32,34,36,-1,38,40,42,-1,-1,44,46,-1,-1,48,50,-1,52,54,-1,56,58,-1,-1,60,-1,62,-1,64,-1,-1,-1,-1,-1,-1,66,-1,68,70,-1,-1,-1,72,-1,-1,74,-1,-1,-1,-1,-1,-1,-1,-1,-1,-1],"split_conditions":[1.7424209E0,-1.579553E-1,-1.579553E-1,-7.4879724E-1,-1.5761244E-1,-3.3415043E-1,-3.440915E-1,-3.440915E-1,6.359286E0,1.2670231E0,1.6148707E0,1.3181742E-1,-6.0457863E-2,1.3270552E-1,-5.485146E-2,2.7477357E-3,-6.1830133E-2,2.1977764E1,-6.984384E-1,-5.745279E-1,6.3545786E-2,5.1946115E-1,4.410177E0,-6.167857E-2,2.6210179E-3,3.606499E0,-3.382656E-2,1.3438012E-1,-5.4683853E-2,-3.3850152E-2,-3.440915E-1,-5.5494864E-2,9.620796E-2,1.95167E0,8.9695126E-1,-5.6006707E-2,1.2030935E0,-3.4906048E-1,-6.059177E-2,4.9851456E0,-3.440915E-1,1.2516685E-1,1.4656144E-2,-7.897618E-3,1.4069724E-1,3.1886457E-3,-5.371501E-2,6.067235E-1,5.1064886E-2,-4.7786485E-2,1.2608698E-1,1.3350576E-1,5.2684348E-2,-5.672113E-2,1.8066524E0,-6.101784E-2,-3.440915E-1,1.4176136E0,-6.1285496E-2,-5.7700224E-2,1.3242914E-1,-5.4000847E-2,-4.0294163E-2,-6.047504E-2,-5.85719E-1,1.2651946E-1,-5.2222457E-2,1.2802014E-1,-5.9877064E-2,1.2988722E-1,-3.8316246E-2,1.3295925E-1,1.1461566E-1,1.2941034E-1,-5.946798E-2],"split_indices":[49,43,43,40,43,23,0,0,47,7,27,0,0,0,0,28,0,32,8,15,8,11,43,0,29,37,12,0,0,12,0,0,0,50,7,0,23,0,0,5,0,0,0,2,0,29,0,6,0,0,0,0,0,0,42,0,0,39,0,0,0,17,0,0,33,0,0,0,0,0,0,0,0,0,0],"split_type":[0,0,0,0,0,0,0,0,0,0,0,0,0,0,0,0,0,0,0,0,0,0,0,0,0,0,0,0,0,0,0,0,0,0,0,0,0,0,0,0,0,0,0,0,0,0,0,0,0,0,0,0,0,0,0,0,0,0,0,0,0,0,0,0,0,0,0,0,0,0,0,0,0,0,0],"sum_hessian":[3.5591047E4,2.7342479E4,8.24857E3,2.169634E4,5.6461387E3,3.331388E2,7.9154316E3,1.3289519E3,2.0367387E4,2.2440042E3,3.4021348E3,5.281105E1,2.8032776E2,7.906768E3,8.663437E0,1.0388171E3,2.9013467E2,2.0259432E4,1.0795581E2,2.2329253E3,1.1078724E1,3.3640496E3,3.808524E1,5.898348E1,9.798337E2,2.0247219E4,1.22129345E1,9.9585144E1,8.370661E0,2.9623379E1,2.203302E3,9.306056E0,1.7726684E0,3.346185E3,1.7864443E1,1.0759574E1,2.7325668E1,9.6309454E2,1.6739187E1,2.0190463E4,5.675541E1,1.1145514E1,1.0674214E0,2.0938677E1,8.684702E0,2.1981594E3,5.142616E0,3.344967E3,1.2180452E0,3.3977277E0,1.4466714E1,2.5336037E1,1.98963E0,6.3731318E0,9.567214E2,2.0157855E4,3.2607178E1,1.20662565E1,4.468915E1,1.6697334E1,4.2413416E0,2.1964585E3,1.7009376E0,3.0070369E3,3.3793005E2,9.5120715E2,5.514238E0,7.680737E0,2.492644E1,1.0475818E1,1.5904386E0,2.0967366E3,9.9721855E1,1.2730022E1,3.252E2],"tree_param":{"num_deleted":"0","num_feature":"52","num_nodes":"75","size_leaf_vector":"1"}},{"base_weights":[6.4344686E-3,-2.0969163E-1,1.3206981E0,-3.4860265E-1,9.1662633E-1,1.3216493E0,-2.2074397E-1,-4.1441056E-1,7.2896415E-1,4.284448E-1,1.176708E0,8.251806E-1,1.3221835E-1,1.6584527E-2,-4.1309293E-2,-4.842533E-1,2.0840153E-1,1.3230227E-1,-5.461238E-1,1.176806E0,-8.395932E-3,1.3021554E0,7.5300467E-1,1.1692619E-1,-1.3639937E-2,-5.1506376E-1,4.908857E-1,1.3128568E0,-4.811306E-1,1.2671958E-1,-6.045311E-1,-1.6747545E-1,1.2984256E0,6.84875E-1,-4.0153345E-1,1.3114579E-1,1.146514E0,1.3182007E-1,5.225919E-1,-5.2297246E-1,1.2691916E0,1.1717292E0,-1.920765E-1,-5.580158E-1,1.4726282E0,-5.452795E-1,1.4359107E0,-6.084437E-2,3.832787E-2,-5.8908887E-2,1.2242963E-1,1.3175324E0,-4.8872355E-2,-5.9981752E-2,1.0248979E0,-5.807965E-1,1.3351735E-1,-5.0746173E-2,1.2324172E0,-4.0581968E-1,1.1070899E0,-2.7893886E-1,-5.665037E-1,1.3160081E-1,-2.1104605E-1,4.9145395E-1,1.278341E0,-4.9143755E-1,1.491761E-1,-6.171889E-2,1.02156E-1,1.4841869E0,-3.80505E-2,1.2516326E0,-5.983956E-1,1.5451252E-1,-4.3106597E-2,4.1560957E-1,1.3217415E-1,1.1910633E0,-5.7909112E-2,9.567601E-2,-5.8942743E-2,1.0676407E0,1.3276266E-1,-4.9673203E-1,1.41283E-1,1.1843517E0,-4.0034103E-1,-5.2984465E-2,2.1041441E-1,-5.7436373E-2,2.0875755E-1,-3.996964E-2,1.5160865E-2,-3.0795647E-2,1.3214579E-1,1.3177003E-1,-7.6454007E-3,-5.3228613E-2,1.6505846E-1,1.4886066E-1,-4.0952206E-2,-4.3125432E-2,1.350283E-1,1.370241E-1,-6.0599457E-2,1.3305974E-2,4.8992988E-2,-4.1575678E-2,1.3005653E-1,3.931009E-2,1.2355528E-1,-5.3163525E-2,1.21850304E-1,7.35363E-2,1.21040426E-1,5.056088E-2,-5.5841655E-2],"categories":[],"categories_nodes":[],"categories_segments":[],"categories_sizes":[],"default_left":[0,0,0,0,0,0,0,0,0,0,0,0,0,0,0,0,0,0,0,0,0,0,0,0,0,0,0,0,0,0,0,0,0,0,0,0,0,0,0,0,0,0,0,0,0,0,0,0,0,0,0,0,0,0,0,0,0,0,0,0,0,0,0,0,0,0,0,0,0,0,0,0,0,0,0,0,0,0,0,0,0,0,0,0,0,0,0,0,0,0,0,0,0,0,0,0,0,0,0,0,0,0,0,0,0,0,0,0,0,0,0,0,0,0,0,0,0,0,0],"id":25,"left_children":[1,3,5,7,9,11,13,15,17,19,21,23,-1,-1,-1,25,27,-1,29,31,33,35,37,-1,-1,39,41,43,45,-1,47,49,51,53,55,-1,57,-1,59,61,63,65,67,69,71,73,75,-1,-1,-1,-1,77,-1,-1,79,81,-1,-1,83,85,87,89,91,-1,93,95,97,99,-1,-1,-1,101,-1,103,105,-1,-1,107,-1,109,-1,-1,-1,111,-1,113,-1,115,117,-1,-1,-1,-1,-1,-1,-1,-1,-1,-1,-1,-1,-1,-1,-1,-1,-1,-1,-1,-1,-1,-1,-1,-1,-1,-1,-1,-1,-1,-1],"loss_changes":[1.0131749E4,4.7929424E3,7.676758E0,1.9340557E3,4.265371E2,2.4414062E-1,3.6320305E-1,1.1180542E3,1.1898762E3,3.827044E2,1.1562402E2,2.8295836E0,0E0,0E0,0E0,6.945669E2,1.974733E3,0E0,5.3685043E1,7.0759705E1,2.020035E2,9.4506836E-1,6.488306E1,0E0,0E0,3.167871E2,3.2958533E2,2.987162E2,1.9712595E2,0E0,2.1066742E0,2.2246653E1,1.4158997E1,1.1777426E2,1.480156E2,0E0,1.5307404E1,0E0,1.9545287E2,2.367793E2,7.1489105E0,2.51073E1,1.7941125E2,8.027342E0,2.0237915E1,1.482709E2,1.1263062E1,0E0,0E0,0E0,0E0,9.3829346E-1,0E0,0E0,5.731221E1,6.2621765E0,0E0,0E0,1.2826538E-1,2.3776918E1,2.6188568E1,2.0211182E3,3.9603174E2,0E0,3.2752514E-1,3.338458E1,1.642566E1,2.7278015E1,0E0,0E0,0E0,8.2508545E0,0E0,8.003265E0,2.3298645E1,0E0,0E0,3.6651492E-3,0E0,3.4469208E1,0E0,0E0,0E0,4.179306E0,0E0,8.649593E0,0E0,1.5695496E0,1.9309391E0,0E0,0E0,0E0,0E0,0E0,0E0,0E0,0E0,0E0,0E0,0E0,0E0,0E0,0E0,0E0,0E0,0E0,0E0,0E0,0E0,0E0,0E0,0E0,0E0,0E0,0E0,0E0,0E0,0E0,0E0],"parents":[2147483647,0,0,1,1,2,2,3,3,4,4,5,5,6,6,7,7,8,8,9,9,10,10,11,11,15,15,16,16,18,18,19,19,20,20,21,21,22,22,25,25,26,26,27,27,28,28,30,30,31,31,32,32,33,33,34,34,36,36,38,38,39,39,40,40,41,41,42,42,43,43,44,44,45,45,46,46,51,51,54,54,55,55,58,58,59,59,60,60,61,61,62,62,64,64,65,65,66,66,67,67,71,71,73,73,74,74,77,77,79,79,83,83,85,85,87,87,88,88],"right_children":[2,4,6,8,10,12,14,16,18,20,22,24,-1,-1,-1,26,28,-1,30,32,34,36,38,-1,-1,40,42,44,46,-1,48,50,52,54,56,-1,58,-1,60,62,64,66,68,70,72,74,76,-1,-1,-1,-1,78,-1,-1,80,82,-1,-1,84,86,88,90,92,-1,94,96,98,100,-1,-1,-1,102,-1,104,106,-1,-1,108,-1,110,-1,-1,-1,112,-1,114,-1,116,118,-1,-1,-1,-1,-1,-1,-1,-1,-1,-1,-1,-1,-1,-1,-1,-1,-1,-1,-1,-1,-1,-1,-1,-1,-1,-1,-1,-1,-1,-1],"split_conditions":[5.347117E-1,-1.5521249E-1,8.886796E-1,2.3757482E0,-3.343902E-1,-5.81553E-2,-1.20043755E-1,6.026999E-3,1.0023859E0,3.0528523E-3,-2.4240524E-2,-4.0182093E-1,1.3221835E-1,1.6584527E-2,-4.1309293E-2,-5.371815E-2,-1.579553E-1,1.3230227E-1,-7.048351E-1,-6.071768E-1,4.410177E0,-2.11537E-1,-6.6546416E-1,1.1692619E-1,-1.3639937E-2,1.8066524E0,-5.164783E-1,-2.1942358E-1,-3.440915E-1,1.2671958E-1,-5.397073E-2,-1.4502434E-1,1.2707171E0,-3.4906048E-1,-8.958609E-2,1.3114579E-1,-6.6323658E-3,1.3182007E-1,-6.6440284E-1,-7.048351E-1,3.0995568E-3,-6.6546416E-1,-3.440915E-1,-3.440915E-1,1.5208147E1,-4.5252374E-1,-3.1183264E-1,-6.084437E-2,3.832787E-2,-5.8908887E-2,1.2242963E-1,-6.071723E-1,-4.8872355E-2,-5.9981752E-2,2.6026238E-2,-5.9681183E-1,1.3351735E-1,-5.0746173E-2,-1.5401253E-1,2.6443452E-3,1.6495211E-2,-3.440915E-1,3.9189566E-2,1.3160081E-1,-6.071954E-1,-3.440915E-1,-1.6236669E-1,2.6210179E-3,1.491761E-1,-6.171889E-2,1.02156E-1,-1.4508837E-1,-3.80505E-2,-6.0719293E-1,2.8877582E-3,1.5451252E-1,-4.3106597E-2,-5.9678894E-1,1.3217415E-1,-6.071957E-1,-5.7909112E-2,9.567601E-2,-5.8942743E-2,7.837648E-3,1.3276266E-1,3.9705503E0,1.41283E-1,-6.6379637E-1,-1.7376462E-2,-5.2984465E-2,2.1041441E-1,-5.7436373E-2,2.0875755E-1,-3.996964E-2,1.5160865E-2,-3.0795647E-2,1.3214579E-1,1.3177003E-1,-7.6454007E-3,-5.3228613E-2,1.6505846E-1,1.4886066E-1,-4.0952206E-2,-4.3125432E-2,1.350283E-1,1.370241E-1,-6.0599457E-2,1.3305974E-2,4.8992988E-2,-4.1575678E-2,1.3005653E-1,3.931009E-2,1.2355528E-1,-5.3163525E-2,1.21850304E-1,7.35363E-2,1.21040426E-1,5.056088E-2,-5.5841655E-2],"split_indices":[9,43,12,0,0,3,34,3,38,45,12,8,0,0,0,17,43,0,35,1,43,32,42,0,0,42,16,13,0,0,17,13,50,0,22,0,5,0,42,35,45,42,0,0,32,14,0,0,0,0,0,1,0,0,44,18,0,0,43,29,44,0,32,0,1,0,30,29,0,0,0,31,0,1,28,0,0,18,0,1,0,0,0,0,0,0,0,42,12,0,0,0,0,0,0,0,0,0,0,0,0,0,0,0,0,0,0,0,0,0,0,0,0,0,0,0,0,0,0],"split_type":[0,0,0,0,0,0,0,0,0,0,0,0,0,0,0,0,0,0,0,0,0,0,0,0,0,0,0,0,0,0,0,0,0,0,0,0,0,0,0,0,0,0,0,0,0,0,0,0,0,0,0,0,0,0,0,0,0,0,0,0,0,0,0,0,0,0,0,0,0,0,0,0,0,0,0,0,0,0,0,0,0,0,0,0,0,0,0,0,0,0,0,0,0,0,0,0,0,0,0,0,0,0,0,0,0,0,0,0,0,0,0,0,0,0,0,0,0,0,0],"sum_hessian":[3.5667336E4,3.0631014E4,5.036323E3,2.7268611E4,3.3624014E3,5.0333604E3,2.9630628E0,2.5699723E4,1.568888E3,1.1696252E3,2.1927761E3,7.070128E0,5.02629E3,1.0302408E0,1.932822E0,2.3108533E4,2.59119E3,1.070233E3,4.9865497E2,4.3047513E2,7.391501E2,1.6902611E3,5.025151E2,5.047872E0,2.022256E0,2.2401217E4,7.073163E2,9.9559534E2,1.5955947E3,1.4914721E1,4.8374023E2,3.5683388E1,3.9479172E2,2.6720697E2,4.719431E2,1.5879261E3,1.0233495E2,1.44164E2,3.583511E2,2.2303064E4,9.815197E1,3.5384918E2,3.534671E2,7.813749E1,9.174578E2,1.5446234E3,5.0971336E1,4.822143E2,1.5259521E0,2.7829618E1,7.853771E0,3.9087555E2,3.9161868E0,5.576158E1,2.1144537E2,4.2839023E2,4.3552902E1,4.8102994E0,9.752466E1,1.385636E2,2.197875E2,3.3773315E3,1.8925734E4,9.5250374E1,2.9016001E0,4.8701492E1,3.051477E2,3.0071298E2,5.275412E1,7.590332E1,2.2341723E0,9.119686E2,5.489211E0,4.3699776E1,1.5009236E3,4.831726E1,2.654075E0,2.2789412E0,3.8859662E2,1.9183017E2,1.9615215E1,1.7780975E0,4.2661212E2,4.0187164E1,5.7337494E1,1.3265898E2,5.9046116E0,2.0927562E2,1.0511881E1,3.0563208E3,3.2101077E2,1.8870633E4,5.5101612E1,1.8415164E0,1.0600837E0,2.512834E1,2.3573153E1,2.965595E2,8.588196E0,2.9582312E2,4.88987E0,9.100586E2,1.9100523E0,2.2331266E0,4.146665E1,5.08183E0,1.4958418E3,1.0557108E0,1.2232304E0,1.2060403E1,1.7976976E2,8.675779E0,3.1511385E1,1.3068964E2,1.9693447E0,1.308007E1,1.9619556E2,1.2350621E0,9.276818E0],"tree_param":{"num_deleted":"0","num_feature":"52","num_nodes":"119",